index,0,1,2,3,4,5,6,7,8,9,10,11,12,13,14,15,16,17,18,19,20,21,22,23,24,25,26,27,28,29,30,31,32,33,34,35,36,37,38,39,40,41,42,43,44,45,46,47,48,49,id,processed_tweets,LOC,place
serai,0.00636284239590168,-0.8879719972610474,-0.4481475055217743,0.15478560328483582,-0.7235152721405029,0.49355223774909973,-0.6037262678146362,0.12051373720169067,0.7504835724830627,-0.39801472425460815,-0.7285409569740295,-0.7951818108558655,-0.18868474662303925,-0.39996767044067383,-0.16431903839111328,1.707017421722412,0.012116829864680767,0.3165268301963806,-2.2844176292419434,0.8208096027374268,1.1624736785888672,-1.0368316173553467,-0.4363898038864136,-1.0255520343780518,-0.7592663168907166,-0.7584944367408752,-0.37673941254615784,-1.2066650390625,-0.25942859053611755,-0.039440613240003586,0.5551521182060242,-0.4239669740200043,-0.8320233225822449,-0.437174916267395,0.590674102306366,0.08462938666343689,-0.7096830010414124,-0.9952312111854553,1.3312344551086426,0.11869893968105316,-0.23900249600410461,-0.7029726505279541,0.19152501225471497,0.624495804309845,0.02299819141626358,0.15332859754562378,-0.02467605285346508,-0.006853671744465828,0.9654756784439087,-0.44818612933158875,1232809049327988736,"idk how many ppl ive annoyed with the smell of my serai wangi 

its still better than bad breath  bau ketiak hamis ",bau ketiak,"North Region, Singapore"
bunk,-0.5966235399246216,-0.6855372190475464,0.21624580025672913,0.12669110298156738,0.47732973098754883,-0.7236922383308411,0.09832563996315002,-0.6966856122016907,-0.08326712250709534,-0.33220332860946655,0.3785161077976227,0.5041728019714355,-1.7403024435043335,0.24824008345603943,0.18356849253177643,-0.4333847165107727,0.08165590465068817,-0.2115086019039154,-1.3085975646972656,0.1908508539199829,0.05627608671784401,0.23401926457881927,-0.014910658821463585,-0.5139041543006897,-0.2765415608882904,1.2161296606063843,-0.31752508878707886,-0.5559758543968201,-0.4666410982608795,0.3003295660018921,-0.04789380356669426,0.8784894943237305,1.41639244556427,-0.27241867780685425,-1.0555503368377686,-0.7970157861709595,0.744596540927887,0.015363260172307491,0.8136215209960938,0.08363959193229675,0.3006107211112976,1.1740986108779907,-0.4648478329181671,-0.5378619432449341,0.688805878162384,0.7793080806732178,0.9863138198852539,0.9969817399978638,0.47347378730773926,-0.1519165337085724,1232704604686520320,why does my bunk smell so fucking bad holy shit,,"East Region, Singapore"
,,,,,,,,,,,,,,,,,,,,,,,,,,,,,,,,,,,,,,,,,,,,,,,,,,,1232538733229903874,i smell chilli crab ughhhh craving,,"West Region, Singapore"
,,,,,,,,,,,,,,,,,,,,,,,,,,,,,,,,,,,,,,,,,,,,,,,,,,,1231876270499123200,"its overflowing yummy 
smell nice 
 small happy 
  singapore https www instagram compb88evq3nz1f igshid 1tvglv1o5u3p",,"Central Region, Singapore"
,,,,,,,,,,,,,,,,,,,,,,,,,,,,,,,,,,,,,,,,,,,,,,,,,,,1231759953490145281,some heteros really dont care about how they look and smell ,,"Central Region, Singapore"
,,,,,,,,,,,,,,,,,,,,,,,,,,,,,,,,,,,,,,,,,,,,,,,,,,,1231748205928255498,isnt it more hygienic to do so like then got less smell and all ,,"Central Region, Singapore"
,,,,,,,,,,,,,,,,,,,,,,,,,,,,,,,,,,,,,,,,,,,,,,,,,,,1231503515912028162,seronok seronok jugak tapi ibarat mcm aku jual name sendiri oh i hate this part satisfied now smell later perks of working in front line  https twitter comqianxingstatus1231109125318176768,,"North-East Region, Singapore"
,,,,,,,,,,,,,,,,,,,,,,,,,,,,,,,,,,,,,,,,,,,,,,,,,,,1231466448968511488,u see my layout we smell a bio chain,,"Central Region, Singapore"
,,,,,,,,,,,,,,,,,,,,,,,,,,,,,,,,,,,,,,,,,,,,,,,,,,,1230881021165371393,"babe i always notice whenever we meet ur hair is still wet and u always smell so good

the unnoticeable things like this always make me awww",,"Central Region, Singapore"
,,,,,,,,,,,,,,,,,,,,,,,,,,,,,,,,,,,,,,,,,,,,,,,,,,,1230713707203678208,my office has a load of fanta smelling hand sanitizer how am i supposed to feel clean if my hands smell of artificial oranges ,,"Central Region, Singapore"
,,,,,,,,,,,,,,,,,,,,,,,,,,,,,,,,,,,,,,,,,,,,,,,,,,,1230415984613191680,can you smell it pic twitter comcamwzllscn,,"Central Region, Singapore"
wifts,-0.007537843659520149,0.011264767497777939,0.00028653113986365497,-0.008652941323816776,-0.0010090252617374063,-0.009383954107761383,0.0005177842685952783,0.005324697587639093,0.0055359285324811935,-0.005412321537733078,-0.002416766481474042,0.002441889140754938,-0.01316495519131422,-0.003777905134484172,0.0082822535187006,0.004715361632406712,0.0014028506120666862,-0.0039823115803301334,0.006120175123214722,0.002731837099418044,0.002616636222228408,0.005012717097997665,-0.009191068820655346,0.004581101704388857,-0.0045606717467308044,0.006711335852742195,-0.007350333034992218,-0.001903560827486217,0.003874322399497032,-0.0026755565777420998,0.009103329852223396,0.008308379910886288,0.001855393755249679,0.004766250029206276,-0.009607001207768917,0.003439932130277157,0.005454369820654392,0.006031491328030825,0.005361645482480526,0.007360640913248062,0.005460092332214117,0.001341851893812418,0.007912476547062397,-0.003498509293422103,0.007379072718322277,-0.005458462052047253,-0.00132215884514153,-0.004916658159345388,-0.007002845872193575,-0.005275058560073376,1230263504545906689,same attraction yes same angle probably not and the smell of friday wifts ever closer towards us  https www instagram compb8xa7thbdy2 igshid 1tt8dxc00lm97,,"Central Region, Singapore"
distinctive,-0.5390316843986511,-0.42240577936172485,0.12356916069984436,0.8843284845352173,1.08281672000885,-0.04197603091597557,0.18959859013557434,-1.052201747894287,-0.9589927792549133,-0.6501410603523254,-0.41866448521614075,0.1084296852350235,-0.6084994673728943,-0.22212232649326324,0.8019121885299683,-0.02860638126730919,1.062923789024353,0.14237254858016968,0.1744571179151535,-0.13096117973327637,-0.3471081256866455,-0.2405950129032135,-0.1454634964466095,-0.3401561677455902,-0.8656765222549438,1.4043408632278442,-0.24547280371189117,1.0272822380065918,-0.041081495583057404,-0.46149569749832153,0.588750422000885,0.4126429855823517,0.8547543287277222,-0.8573544025421143,0.8676211833953857,-0.008745958097279072,-0.5042882561683655,-0.523643434047699,0.41128459572792053,-0.2949328124523163,0.7169426679611206,0.3219549059867859,-0.06495750695466995,0.0448707677423954,-0.32912594079971313,-0.6296210289001465,0.9170824289321899,0.08168129622936249,-0.21135172247886658,-0.3901802897453308,1230085398308642816,amk hub has a distinctive smell leh its not bad its just everywhere ,,"North-East Region, Singapore"
,,,,,,,,,,,,,,,,,,,,,,,,,,,,,,,,,,,,,,,,,,,,,,,,,,,1229983525727719424,this costs a bomb but at least im gonna smell bomb ,,"West Region, Singapore"
,,,,,,,,,,,,,,,,,,,,,,,,,,,,,,,,,,,,,,,,,,,,,,,,,,,1229913867691556866,can ppl please cover their mouths when they yawn i can smell what they had for last nights dinner ,,"North Region, Singapore"
,,,,,,,,,,,,,,,,,,,,,,,,,,,,,,,,,,,,,,,,,,,,,,,,,,,1229234908633030656,thinking about getting a chanel perfume but why i dont like the smell ,,"East Region, Singapore"
my,-0.3013800084590912,-0.1401599943637848,0.10571999847888947,0.44457000494003296,-0.22762000560760498,-0.1537500023841858,1.3121000528335571,0.15415999293327332,-0.048510000109672546,-0.07797300070524216,-0.6193400025367737,0.3705500066280365,-6.118000030517578,-0.1647299975156784,-0.773389995098114,-0.24381999671459198,0.4237399995326996,-0.19056999683380127,-1.1576000452041626,0.09939800202846527,-0.3822700083255768,0.8777899742126465,0.01657699979841709,0.4884999990463257,-0.5432000160217285,0.08456700295209885,0.12031000107526779,-0.08123700320720673,0.7149199843406677,-0.0019020000472664833,-1.3327000141143799,-0.09614799916744232,-0.2853100001811981,-0.3710800111293793,0.02674200013279915,0.01941799931228161,0.3210900127887726,0.6423199772834778,-0.008264499716460705,0.4996800124645233,-1.2450000047683716,0.022040000185370445,-0.2521600127220154,-0.14952999353408813,0.302839994430542,-0.1516299992799759,0.8082500100135803,-0.26315999031066895,0.6167299747467041,0.42083001136779785,1229172632945213440,i dont know why but this rishi guy doesnt pass my smell test will wait and watch before celebrating have a feeling he will lecture us soon on secularism https twitter comsgurumurthystatus1229124007754072074,,"East Region, Singapore"
ship,-0.6805034279823303,0.38758450746536255,-0.3620481491088867,0.7484759092330933,-0.6833980083465576,-1.1054015159606934,0.7979468703269958,0.09397540241479874,1.3877180814743042,-0.49027547240257263,0.5574408173561096,-0.0882037803530693,-3.3268332481384277,-0.26553818583488464,-0.07625216245651245,0.41682204604148865,-0.0897502675652504,-0.23176424205303192,-0.32332953810691833,-0.20526908338069916,1.1894910335540771,-0.4658285677433014,1.0201828479766846,-0.29068899154663086,-0.3153091371059418,0.8129144906997681,-0.6170103549957275,0.20534639060497284,0.6948527097702026,0.40040865540504456,-0.13754934072494507,-0.22204692661762238,0.32116737961769104,-0.5515726208686829,0.10977086424827576,-0.9371860027313232,0.19276651740074158,-0.3660123944282532,-0.1550256907939911,-0.5682119131088257,-0.6981906890869141,-0.7947348356246948,0.32697319984436035,-0.5024875402450562,-0.31670016050338745,0.4241412580013275,-0.03142340108752251,-0.18484659492969513,0.2348307967185974,0.15766304731369019,1229074847231168513,why does this ship smell like kambing ,,"West Region, Singapore"
smokey,-0.909439742565155,-0.896811842918396,0.20267538726329803,-0.4443740248680115,-0.06475472450256348,-0.13032032549381256,0.5421504974365234,-0.48280563950538635,-0.6943742036819458,0.07518411427736282,-0.7206470966339111,1.1120773553848267,-1.961869239807129,-0.40941503643989563,-0.1660495549440384,-0.6315751671791077,0.36111098527908325,0.23413455486297607,0.3928714394569397,-0.07235057651996613,-0.9685788154602051,-0.05454046651721001,0.5284712910652161,-0.536316454410553,0.1303456723690033,0.5639286637306213,0.6065805554389954,1.1722161769866943,-0.16395898163318634,-0.4652141332626343,0.3281276226043701,0.8206826448440552,-0.18010464310646057,-0.28868430852890015,-1.1784318685531616,0.32474052906036377,-0.029092473909258842,0.3694441616535187,0.46701428294181824,0.6643515825271606,0.23329678177833557,-0.39327654242515564,-0.2046579122543335,0.1677796095609665,-0.43998971581459045,0.4734083116054535,0.8838140368461609,0.0984661877155304,0.09648185223340988,0.4010511338710785,1229020450367213568, west side of singapore has smokey smell for the past few days ,west,"West Region, Singapore"
wood,-0.41418325901031494,-1.642215371131897,0.8402019143104553,-0.148237943649292,0.8176077008247375,-0.8003840446472168,-0.40623393654823303,-0.6431760787963867,0.10481627285480499,-0.28932496905326843,0.46840453147888184,0.8892081379890442,-3.484311819076538,-0.6552302837371826,0.34216853976249695,-0.19288688898086548,0.12066873908042908,0.47147294878959656,0.48095476627349854,0.5620087385177612,-0.9398317933082581,0.013076371513307095,0.3398081660270691,-0.8845502138137817,0.179448202252388,0.36435675621032715,-0.8701328635215759,0.5927338600158691,0.4364747107028961,-0.11186745017766953,0.7780142426490784,0.7695322036743164,0.08092395216226578,-0.06472578644752502,-0.36369359493255615,-0.012728944420814514,0.6901723146438599,0.8865741491317749,1.3950635194778442,0.2632025182247162,-0.32204878330230713,0.8355720639228821,-0.12845800817012787,0.015214571729302406,0.5588882565498352,0.07389137893915176,0.4779154062271118,0.25129473209381104,0.35158687829971313,-0.061330199241638184,1228969984128274432,ahhh the smell of new wood 8 0 x 31 875 team series    pic twitter comfimewmdlfq,,"East Region, Singapore"
lovely,-0.2808648645877838,-0.16021306812763214,0.5161725878715515,0.4690544903278351,-0.038264356553554535,-0.3379250764846802,1.0473291873931885,-0.5199870467185974,-1.1200549602508545,-0.5389634966850281,-1.137922763824463,0.2941398024559021,-4.0663228034973145,-0.2532085180282593,-0.7499651908874512,0.7380155920982361,0.6143261790275574,-0.4303429126739502,-1.1624220609664917,0.37296417355537415,-0.3958115875720978,-0.9110406041145325,-0.6895844340324402,-0.06722279638051987,-0.1025203987956047,1.348456859588623,-0.4372430145740509,0.07111584395170212,1.009864091873169,-0.6927966475486755,-0.3807027339935303,0.3075384497642517,0.595075249671936,0.04102533310651779,0.42722374200820923,0.30565735697746277,0.14163987338542938,0.6503658890724182,0.09623747318983078,0.6529969573020935,-1.2387974262237549,-0.6010969877243042,0.2711593806743622,1.1627750396728516,0.17933817207813263,0.5430775284767151,0.5346029996871948,-0.5349258780479431,-0.16449156403541565,-0.18336455523967743,1228966325214535683,"whenever you feel like cleansing your house

go get 3 stalks of lemon grass make sure its fresh beat the back of stalk and boil some water and let it be for the 2hrs and your whole house will have that lovely smell very relaxing

well thats what i do ",,"North-East Region, Singapore"
wonderful,-0.023096736520528793,0.08263199031352997,0.45915576815605164,0.46423816680908203,0.39105379581451416,0.1341547966003418,1.2757376432418823,-0.5245611071586609,-1.5903844833374023,-0.7489830851554871,-1.1088382005691528,0.2923315465450287,-3.943739175796509,0.26594412326812744,-0.23976585268974304,0.867795467376709,0.49564605951309204,0.29994747042655945,-0.5575810074806213,0.5934954881668091,-0.18237243592739105,-0.4194263815879822,-1.0275355577468872,0.3854975402355194,-0.05031375586986542,1.3503308296203613,-0.39909908175468445,-0.030466513708233833,1.3440372943878174,-0.294826477766037,-0.16695518791675568,-0.23771774768829346,0.14247141778469086,0.07949158549308777,0.5627905130386353,0.48404937982559204,-0.05584949254989624,0.057252559810876846,0.11147080361843109,0.3174830675125122,-0.5369059443473816,-0.5353754162788391,0.6635531187057495,0.4271353483200073,0.024071309715509415,0.6863834261894226,0.5812409520149231,-0.43302470445632935,-0.5535168051719666,0.004092743620276451,1228947758494601217,when you stir fry some garlic and it released a wonderful smell,,"North-East Region, Singapore"
,,,,,,,,,,,,,,,,,,,,,,,,,,,,,,,,,,,,,,,,,,,,,,,,,,,1228747489542434816,smell ,,"West Region, Singapore"
,,,,,,,,,,,,,,,,,,,,,,,,,,,,,,,,,,,,,,,,,,,,,,,,,,,1228670501066690560,"another day another birthday celebration this time my fathers 
 
been wanting to try this cafe and finally we did today the smell of waffles is really strong here but alas no coffee drinks coz coffee machine https www instagram compb8lsgquhb2c igshid 1bzny446r6vgg",,"East Region, Singapore"
,,,,,,,,,,,,,,,,,,,,,,,,,,,,,,,,,,,,,,,,,,,,,,,,,,,1228659135744376833,things with teeth can smell fear,,"West Region, Singapore"
,,,,,,,,,,,,,,,,,,,,,,,,,,,,,,,,,,,,,,,,,,,,,,,,,,,1228521241864101888,was close to the sambal for about 15 sec and now i smell like sambal hais,,"North-East Region, Singapore"
,,,,,,,,,,,,,,,,,,,,,,,,,,,,,,,,,,,,,,,,,,,,,,,,,,,1228445908884307968,"i look at today as a reminder 
to smell the roses
to love while were here
to appreciate each other and ourselves 
our planet our spirits
to give sweet unexpected surprises
to be tender 
to be thoughtful 
to take care of you your heart your body ",,"East Region, Singapore"
,,,,,,,,,,,,,,,,,,,,,,,,,,,,,,,,,,,,,,,,,,,,,,,,,,,1228219187744526337,ah shit i just read about it no wonder since 3 am ish i smell it,,"West Region, Singapore"
,,,,,,,,,,,,,,,,,,,,,,,,,,,,,,,,,,,,,,,,,,,,,,,,,,,1228208161833639938,people in the west do you smell haze in the air ,,"West Region, Singapore"
,,,,,,,,,,,,,,,,,,,,,,,,,,,,,,,,,,,,,,,,,,,,,,,,,,,1228194444500860929,83 for crocs that smell like chicken sign me up https twitter comchannelnewsasiastatus1228191669654188032,,"North Region, Singapore"
,,,,,,,,,,,,,,,,,,,,,,,,,,,,,,,,,,,,,,,,,,,,,,,,,,,1228192172299538433,so i coughed from breathing in the pungent smell of some commuters perfum in the train then people start looking ag me like can people chill i use my elbow to keep it within my personal space i mean how the hell am i supoose to know i would react to it ,,"West Region, Singapore"
,,,,,,,,,,,,,,,,,,,,,,,,,,,,,,,,,,,,,,,,,,,,,,,,,,,1228185541251780610,"its smoked duck linguine for lunch today  smell curry hit i couldnt cook curry  
  tampines https www instagram compb8ip 0xnbgjr7tsrsi3 crcwhxlfudyhqer bk0 igshid qu9309gwh796",tampines,"East Region, Singapore"
,,,,,,,,,,,,,,,,,,,,,,,,,,,,,,,,,,,,,,,,,,,,,,,,,,,1227977317122625537,ahhh love the smell of it in the air,,"North Region, Singapore"
oat,-0.32416659593582153,-0.5390002131462097,-0.406242311000824,0.41776472330093384,0.025115612894296646,0.6642906069755554,-1.2063348293304443,-0.8220034241676331,0.2701773941516876,-0.8868001699447632,-0.6855588555335999,-0.8586142063140869,-0.9080533385276794,-0.5160232186317444,-0.05669168382883072,0.019603831693530083,1.011615514755249,-0.2727797329425812,0.47126099467277527,1.3715115785598755,-1.3283889293670654,0.04213817045092583,0.29206082224845886,0.12070554494857788,0.3092707693576813,0.5181223750114441,-0.19431307911872864,-0.360164076089859,0.28474393486976624,0.10960102826356888,0.43535104393959045,0.15503910183906555,-0.006854931823909283,0.2188364714384079,-1.3204916715621948,-0.23843742907047272,0.3385249972343445,-0.508728563785553,0.8917257189750671,0.9156116247177124,-0.43416717648506165,-0.5300660133361816,-0.13861793279647827,-1.1874613761901855,0.9948212504386902,0.2635476887226105,0.055956266820430756,-1.2238588333129883,0.9627026319503784,0.19690489768981934,1227970868535447552,"moisturizer  i liked the water texture disliked the oat smell at first haha but got used to it takes time to absorb 

serum  glides through the skin  a little heavy for a serum but its okay sometimes i use the serum without the moisturizer bcs it can act like one heh ",,"East Region, Singapore"
specific,0.537501335144043,0.16662608087062836,-0.3655000627040863,0.4963940680027008,1.2447837591171265,-0.13676409423351288,0.5582782626152039,-1.2316352128982544,0.4710018038749695,0.018657755106687546,-0.35543757677078247,-0.3402538299560547,-3.107529401779175,-0.09099622070789337,-0.040844179689884186,1.001320719718933,1.5054407119750977,-0.07797949761152267,0.41655075550079346,-0.3003920316696167,0.4599127471446991,0.6258273720741272,0.2410172075033188,-0.08739107102155685,-0.7782050967216492,0.814169704914093,-0.05632586404681206,0.6840822696685791,0.07387593388557434,-0.2280794382095337,0.14687824249267578,-0.18514887988567352,0.48228198289871216,-0.7767441868782043,1.204237461090088,0.008798129856586456,-0.14375440776348114,0.1690400391817093,0.0949425920844078,-0.6825767755508423,0.20093406736850739,0.8647582530975342,1.0135859251022339,-0.6674885749816895,-0.4182742238044739,-0.1812385618686676,0.0546468086540699,0.5002599954605103,-0.46766260266304016,-0.2294916957616806,1227907509131677696,i swear every bus 39 has this specific smell  it hasnt changed since i was in primary sch ,,"North Region, Singapore"
,,,,,,,,,,,,,,,,,,,,,,,,,,,,,,,,,,,,,,,,,,,,,,,,,,,1227548952200790018,im not trying to be rude but you put on a mask but still smell hapak nak mampos goodness tell me exactly how personal hygiene hello ke kau tak tahu yg kau bau busuk ugh fuck off pls,,"Central Region, Singapore"
,,,,,,,,,,,,,,,,,,,,,,,,,,,,,,,,,,,,,,,,,,,,,,,,,,,1227437489687859200,"hugs karisma
karisma u still smell so good all this while dude
me bruh i just ran at the field",,"East Region, Singapore"
steam,-0.35631123185157776,-0.019286854192614555,-1.0727691650390625,-0.36463239789009094,0.0660196989774704,0.644192636013031,0.28378263115882874,-0.8569658398628235,0.8673079013824463,-0.57901531457901,0.4192483723163605,0.7359567284584045,-2.381530284881592,0.49827444553375244,0.18052124977111816,-0.1354464441537857,0.8662590384483337,0.22445520758628845,-0.00931989960372448,0.20590753853321075,-1.221063494682312,-0.3784773349761963,0.899947464466095,-0.7066633701324463,-0.936004102230072,-0.27267464995384216,-0.3202543556690216,0.21628649532794952,0.10301541537046432,0.36631497740745544,0.1557958573102951,-0.27365565299987793,0.10245133191347122,-0.1944608986377716,0.22320789098739624,-0.42892879247665405,0.49665138125419617,-0.5459736585617065,-0.47989028692245483,0.6034340262413025,-0.4047900438308716,0.30347365140914917,-0.7626453638076782,0.03548261895775795,0.8788279891014099,0.04973379895091057,-0.43424323201179504,0.07384177297353745,0.2665173411369324,0.6939569711685181,1227410030548246528,mind you i havent eaten rice as my daily staple for months now bcz im repelled by the smell of steam white rice yes im weird pic twitter comyteaaww6p6,,"East Region, Singapore"
,,,,,,,,,,,,,,,,,,,,,,,,,,,,,,,,,,,,,,,,,,,,,,,,,,,1227271304119648257,i smell privilege https twitter comtissuepaperhoestatus1226697295892074496,,"West Region, Singapore"
,,,,,,,,,,,,,,,,,,,,,,,,,,,,,,,,,,,,,,,,,,,,,,,,,,,1227216071238639617,"entered the van and i keep telling him why smell of food 
he step tk faham what i was talking abt saying maybe i hunghry tts y i smell food dlm van dia 
tau2 bila sampai carpark he kluarkan my fav tom yum ban mian 
kemain lagi dah pandai nk surprise2 kan kita ",tau2,"West Region, Singapore"
,,,,,,,,,,,,,,,,,,,,,,,,,,,,,,,,,,,,,,,,,,,,,,,,,,,1227017314597367808,"tom fords fucking fabulous is well fucking fabulous 

i can still smell it on me now  def smells better now when its trying to punch me in the nose ",,"West Region, Singapore"
,,,,,,,,,,,,,,,,,,,,,,,,,,,,,,,,,,,,,,,,,,,,,,,,,,,1227011140686761986,ants got this kind of smell went they walk on ur face,,"East Region, Singapore"
,,,,,,,,,,,,,,,,,,,,,,,,,,,,,,,,,,,,,,,,,,,,,,,,,,,1226847293749391360,why does my house stink so bad nak muntah bau ni i hate when nearby neighbours cook and the smell masuk our house i can die suffocated i wish i can tolerate the smell ,,"North Region, Singapore"
hands,-0.2851487994194031,-0.13390345871448517,0.9658527970314026,0.5779566168785095,0.019210243597626686,0.06599204242229462,1.1256812810897827,0.7957064509391785,-0.4571451246738434,-0.006834291387349367,0.2214544713497162,0.344611793756485,-4.091224193572998,-0.6842214465141296,-0.1530347764492035,-0.04015771672129631,-0.32994723320007324,-0.7377253174781799,-0.0014738764148205519,-1.2220251560211182,-0.7678646445274353,0.18810933828353882,0.438059002161026,0.614567220211029,0.38517001271247864,0.7381711006164551,-0.597507894039154,0.30959370732307434,-0.0388806015253067,0.23120000958442688,-0.3606073558330536,0.28840047121047974,-0.5988600850105286,0.034647002816200256,0.8034283518791199,-0.2519895136356354,0.18844649195671082,0.031686630100011826,0.1462777704000473,0.4111981689929962,0.06886343657970428,0.2549322545528412,-0.23463529348373413,0.23970972001552582,0.7000830173492432,-0.5303841829299927,1.1022510528564453,0.3460010588169098,0.8839715719223022,0.555867612361908,1226737196612251648,my hands smell like vanilla uwu i love it ,,"East Region, Singapore"
,,,,,,,,,,,,,,,,,,,,,,,,,,,,,,,,,,,,,,,,,,,,,,,,,,,1226568894724239360,take time to smell the roses  floral fantasy https www instagram compb8wwz2zbnqf igshid r2r5879io1lj,,"Central Region, Singapore"
,,,,,,,,,,,,,,,,,,,,,,,,,,,,,,,,,,,,,,,,,,,,,,,,,,,1226406646307422208,"so i decided to go for a half arm tattoo and finished it in one session lasting almost 8 hours give or take cuz the artist really took this like a competition

i smell like wet dog right now wtf",,"North-East Region, Singapore"
,,,,,,,,,,,,,,,,,,,,,,,,,,,,,,,,,,,,,,,,,,,,,,,,,,,1226402393270603776,i like the smell of dettol ,,"Central Region, Singapore"
,,,,,,,,,,,,,,,,,,,,,,,,,,,,,,,,,,,,,,,,,,,,,,,,,,,1226372974376210432,tnc just brought back the es x morph combo  ow shit i smell champions https twitter comtncpredatorstatus1226362373759328256,,"East Region, Singapore"
,,,,,,,,,,,,,,,,,,,,,,,,,,,,,,,,,,,,,,,,,,,,,,,,,,,1226112309442969600,i smell lots of money in dollars  pic twitter come4ybbgnt9g,,Esplanade Outdoor Theatre
yall,0.8762598037719727,0.9660142660140991,-0.08722183853387833,-0.23689383268356323,0.5856187343597412,0.02240630052983761,0.8763735890388489,0.811423122882843,0.2972230315208435,0.9678742289543152,-0.9451019167900085,1.2092151641845703,-4.71364688873291,-0.0031040948815643787,-0.6083387136459351,-0.365872859954834,-1.0358467102050781,-0.687629222869873,-0.5852620005607605,0.12403059005737305,0.17056109011173248,-0.21331027150154114,0.1223808005452156,0.08405112475156784,-0.2717650830745697,0.6646658778190613,0.5402814745903015,-0.11459330469369888,-1.0249351263046265,-0.20252496004104614,-0.7033690810203552,0.64220130443573,-0.278901606798172,0.9745574593544006,-0.5545769929885864,0.41401293873786926,-0.6935566663742065,0.4416297376155853,-0.1872904747724533,0.7157134413719177,-0.166233092546463,0.36688703298568726,1.0757725238800049,-0.38883379101753235,-0.7987497448921204,-0.7548152208328247,1.1983810663223267,-0.12451904267072678,0.492876261472702,1.0567549467086792,1225627709792911360,im sorry but please shower in the morning doesnt matter if you showered the night before or your bed is clean or you didnt perspire some of yall smell bad in the morning and it lasts the entire day until your next shower  emphasis on some  not all ,,"East Region, Singapore"
,,,,,,,,,,,,,,,,,,,,,,,,,,,,,,,,,,,,,,,,,,,,,,,,,,,1225544686221320194,why does old people smell like wet wipes ,,"West Region, Singapore"
,,,,,,,,,,,,,,,,,,,,,,,,,,,,,,,,,,,,,,,,,,,,,,,,,,,1225389093183533059,"the greg norman wagyu beef platter with blue cheese 

i thought it would be too strong for me cause ive tried blue cheese in the past but its so nice along with smell of medium rare level of the beef 

  https www instagram compb8oytvwbh7g igshid 1hrrku66u8mgh",,"Central Region, Singapore"
,,,,,,,,,,,,,,,,,,,,,,,,,,,,,,,,,,,,,,,,,,,,,,,,,,,1225276011576606720,"him youll have to see it in person touch it and smell it just like how our parents does to select watermelon at the supermarket

me my parents smack watermelons or buy the sliced up ones pic twitter comjmazym5zxj",,"Central Region, Singapore"
,,,,,,,,,,,,,,,,,,,,,,,,,,,,,,,,,,,,,,,,,,,,,,,,,,,1225076006614003713,i am so fucking in love with this smell i didnt notice my jacket ade,,"East Region, Singapore"
,,,,,,,,,,,,,,,,,,,,,,,,,,,,,,,,,,,,,,,,,,,,,,,,,,,1224824327813529600,hmm whats that smell i wonder https www washingtonexaminer comnewsbuttigieg campaign paid firm that developed voting app blamed for iowa caucus delays,,"Central Region, Singapore"
it,-0.04110100120306015,0.19112999737262726,0.09549900144338608,0.0028301000129431486,0.09025900065898895,0.731909990310669,0.8512899875640869,0.22551999986171722,0.27452999353408813,0.7409200072288513,0.3416700065135956,-0.11665999889373779,-6.310100078582764,-0.20170000195503235,-0.31718000769615173,-0.05216800048947334,0.4715699851512909,-0.0602869987487793,-0.6726300120353699,-0.1098800003528595,-0.0308810006827116,0.1500300019979477,0.044828999787569046,0.7716100215911865,0.08088099956512451,0.4584600031375885,0.41312000155448914,0.3734300136566162,0.5302000045776367,-0.05388199910521507,-0.4480400085449219,0.6614199876785278,-0.03150299936532974,-0.4093100130558014,0.5275300145149231,0.3552199900150299,-0.2036300003528595,0.019589999690651894,0.12759000062942505,0.19731000065803528,-0.8081799745559692,-0.12084999680519104,0.2566800117492676,-0.0622359998524189,-0.022257000207901,-0.12613999843597412,0.02071000076830387,-0.2968499958515167,-0.3196899890899658,0.3080799877643585,1224019981437767680,alamak why does it smell like something is burning now im sneezing non stop ,,"East Region, Singapore"
people,1.4553078413009644,0.4991600513458252,-0.3725092113018036,0.49107825756073,-0.07602526992559433,0.2329818606376648,1.2884491682052612,-0.25986987352371216,-0.6476567387580872,0.43745332956314087,-0.27245086431503296,-0.5526940226554871,-6.678860664367676,-0.1922643929719925,-0.41312873363494873,0.09587880969047546,-0.46722012758255005,-1.1927850246429443,0.5416199564933777,-0.22552473843097687,0.3520244061946869,-0.5141705274581909,-0.2638656198978424,0.08818382769823074,-0.014537513256072998,0.6653504371643066,-0.1360565423965454,0.5859310030937195,-0.04683753103017807,-0.49567508697509766,-0.3449457287788391,-0.18166819214820862,0.42723479866981506,0.8959471583366394,0.2940324544906616,0.36692237854003906,-0.3365366458892822,0.09239152073860168,-0.060261260718107224,-0.42149510979652405,-0.5726609826087952,0.5574604272842407,0.10273477435112,-0.42450881004333496,-0.03506619110703468,-0.15480399131774902,0.5997310876846313,0.7781713604927063,-0.1294911801815033,0.13211265206336975,1223932483273576448,why do some people smell like garlic ,,"North Region, Singapore"
tried,-0.08151132613420486,0.9731447100639343,0.4551352262496948,-0.6135284900665283,-0.6017754077911377,-0.6904378533363342,0.501277506351471,-0.48712393641471863,0.42243561148643494,0.29774242639541626,-0.5888709425926208,0.44463521242141724,-4.739253520965576,-0.20236694812774658,-0.38100993633270264,0.11544717103242874,0.2369922697544098,-0.5588281154632568,0.2738001048564911,-0.6402939558029175,0.3665905296802521,0.14048802852630615,0.49370482563972473,0.06289765238761902,0.004278299864381552,0.9225955009460449,-0.39503204822540283,-0.030695099383592606,0.29814770817756653,-0.06574304401874542,-0.17187611758708954,0.9039077162742615,-0.7205626368522644,-0.3648090958595276,-0.14481738209724426,0.9729546904563904,-0.08172737807035446,-0.01112959161400795,0.37523749470710754,0.25036242604255676,0.4455242455005646,0.4195380210876465,0.08628137409687042,-0.4987286329269409,0.7823642492294312,-0.849845290184021,0.11991096287965775,0.4815463423728943,-0.26242950558662415,-0.18391045928001404,1223869181055004673,i tried smelling but yeah no chocolate smell,,"Central Region, Singapore"
,,,,,,,,,,,,,,,,,,,,,,,,,,,,,,,,,,,,,,,,,,,,,,,,,,,1223796657298391040,i cannot smell steamed white rice or let alone eat it ,,"North Region, Singapore"
sanitizer,-0.6254824995994568,0.19197560846805573,-0.018632685765624046,0.15525947511196136,-0.2471156120300293,0.8256842494010925,-0.19008085131645203,-0.9083975553512573,0.549764096736908,0.01881624385714531,0.28044581413269043,0.4648880064487457,-1.229403018951416,-0.7980144023895264,0.22335202991962433,1.1153422594070435,0.3663482964038849,-0.3718131184577942,1.1618067026138306,-0.21794244647026062,-1.307680606842041,0.17986784875392914,0.38462182879447937,0.3606114387512207,0.4221354126930237,1.205546259880066,-0.4909677803516388,0.6653841733932495,-0.09272824227809906,0.826262354850769,-0.5028855800628662,0.599395215511322,0.06284420192241669,-0.585785984992981,-0.05002548173069954,-0.6863545179367065,0.3484150171279907,0.7281846404075623,-0.5309411287307739,0.6213082671165466,1.0909366607666016,0.3990732431411743,-1.5720045566558838,-1.002842664718628,0.17742177844047546,-1.4605201482772827,-0.07618493586778641,0.7332097291946411,0.2788144648075104,0.23265041410923004,1223626141157605376,hand sanitizer smell is repulsive,,"East Region, Singapore"
,,,,,,,,,,,,,,,,,,,,,,,,,,,,,,,,,,,,,,,,,,,,,,,,,,,1223543286616379392,omg i can smell it it smells so good the taste pls dont disappoint me ,,"North-East Region, Singapore"
would,0.12778650224208832,0.560591459274292,-0.11640311032533646,-0.312593549489975,-0.2033957690000534,-0.4458228349685669,0.6980381011962891,0.29174497723579407,0.1624196320772171,0.16891580820083618,0.2637055516242981,-0.04842587560415268,-6.951496601104736,-0.38789835572242737,0.24203060567378998,0.41994035243988037,-0.13673633337020874,-0.21181891858577728,-0.20349951088428497,-0.11542683839797974,0.800054132938385,-0.10438495874404907,0.3740265965461731,0.5513344407081604,0.14425183832645416,0.7733240723609924,0.13715998828411102,0.22831888496875763,0.611929178237915,-0.10798416286706924,0.3594713807106018,0.721479594707489,0.19607587158679962,0.02188172936439514,0.22789619863033295,0.3030879497528076,0.1351035088300705,-0.23674260079860687,0.26421627402305603,0.5034670233726501,-0.22308103740215302,-0.5287891626358032,0.19220244884490967,-0.14288118481636047,0.4468555748462677,-0.9233052730560303,0.5625807046890259,-0.13482099771499634,-0.5313871502876282,-0.35493412613868713,1222429559305445376,one final shower and blowdry by the petstore auntie so that i would smell fresh and clean before mommy  daddy could bring me home that day   pet movers https www instagram compb75wdgbpgxt igshid 57er6tghqzwo,,"East Region, Singapore"
,,,,,,,,,,,,,,,,,,,,,,,,,,,,,,,,,,,,,,,,,,,,,,,,,,,1222344608018915328,too bad lah i cant stand the smell of nuts for now ,,"East Region, Singapore"
good,0.6174265146255493,-0.0656389594078064,0.13961118459701538,-0.10558517277240753,0.15190237760543823,1.0063523054122925,1.7383352518081665,0.2890229821205139,-0.5824649333953857,0.42763611674308777,-0.9491551518440247,0.28854265809059143,-7.562199115753174,-0.1276523768901825,-0.08367177098989487,0.10546723008155823,0.6745840311050415,-0.6843307614326477,-1.1967869997024536,-0.007128774654120207,-0.5620872974395752,0.09910620748996735,-0.18206103146076202,0.7687273621559143,0.21494466066360474,1.1112169027328491,0.22843237221240997,-0.07073123008012772,1.036605715751648,-0.4937174916267395,-0.31443414092063904,0.5724837183952332,-0.1783447116613388,0.2486650049686432,0.313705712556839,0.687915027141571,-0.21406948566436768,0.19959542155265808,0.2653294801712036,1.2806310653686523,-1.7184756994247437,-0.21662332117557526,0.7068919539451599,0.2991188168525696,0.43778693675994873,0.29231464862823486,0.2955341339111328,-0.08022983372211456,-0.30658769607543945,0.19317054748535156,1222094185710399493,dem flowers yah smell like some good kush  flower dome in singapore https www swarmapp comc6603gvlay4u,,"Central Region, Singapore"
yall,0.8762598037719727,0.9660142660140991,-0.08722183853387833,-0.23689383268356323,0.5856187343597412,0.02240630052983761,0.8763735890388489,0.811423122882843,0.2972230315208435,0.9678742289543152,-0.9451019167900085,1.2092151641845703,-4.71364688873291,-0.0031040948815643787,-0.6083387136459351,-0.365872859954834,-1.0358467102050781,-0.687629222869873,-0.5852620005607605,0.12403059005737305,0.17056109011173248,-0.21331027150154114,0.1223808005452156,0.08405112475156784,-0.2717650830745697,0.6646658778190613,0.5402814745903015,-0.11459330469369888,-1.0249351263046265,-0.20252496004104614,-0.7033690810203552,0.64220130443573,-0.278901606798172,0.9745574593544006,-0.5545769929885864,0.41401293873786926,-0.6935566663742065,0.4416297376155853,-0.1872904747724533,0.7157134413719177,-0.166233092546463,0.36688703298568726,1.0757725238800049,-0.38883379101753235,-0.7987497448921204,-0.7548152208328247,1.1983810663223267,-0.12451904267072678,0.492876261472702,1.0567549467086792,1221943279706497024,what is with  men and not showering yall smell like shit i cant stand this,,"North Region, Singapore"
,,,,,,,,,,,,,,,,,,,,,,,,,,,,,,,,,,,,,,,,,,,,,,,,,,,1221818461615087616,i smell like weed hahaha jadah https twitter comciaraciarawrstatus1221077417592311809 pic twitter comddumob9uez,,"East Region, Singapore"
,,,,,,,,,,,,,,,,,,,,,,,,,,,,,,,,,,,,,,,,,,,,,,,,,,,1221733814885470209,what a fresh smell of air after rain,,"Central Region, Singapore"
,,,,,,,,,,,,,,,,,,,,,,,,,,,,,,,,,,,,,,,,,,,,,,,,,,,1221689389274652672,i smell like this https twitter comciaraciarawrstatus1221077417592311809,,"North-East Region, Singapore"
,,,,,,,,,,,,,,,,,,,,,,,,,,,,,,,,,,,,,,,,,,,,,,,,,,,1221269451447758849,idk whether i want my room to smell like vanilla ceylon or that versace eros perfume hahaha,,"North-East Region, Singapore"
indians,1.287795066833496,0.036466486752033234,0.13745816051959991,-0.6087172031402588,-0.9159365892410278,-0.154106006026268,0.07069750875234604,0.8491066694259644,-0.42115747928619385,-0.45938000082969666,0.12898992002010345,-0.24304001033306122,-2.8408215045928955,0.43063706159591675,0.9532561898231506,-0.8085436820983887,-0.40324005484580994,-0.833640992641449,1.1071776151657104,0.5648903250694275,0.118101567029953,-0.22646212577819824,0.18648198246955872,-0.6203003525733948,-0.229731947183609,1.1643505096435547,0.27977991104125977,-0.12375392019748688,-0.22067680954933167,-0.28078290820121765,1.3549737930297852,0.1925348937511444,0.44284674525260925,0.7031999230384827,0.9978083968162537,-0.08738084882497787,-0.3519178032875061,-0.21456146240234375,-0.182211771607399,0.6550489664077759,0.9055590033531189,-0.4713341295719147,0.22417397797107697,-0.009529279544949532,-0.3050008714199066,0.030091943219304085,0.2105383723974228,-0.104343481361866,0.004705552477389574,0.8253101706504822,1220979067681247233,even up till today some chinese people would move aside when indians cough sneeze in the public they say that we indians smell bad which is absolutely disrespectful but look now karma is being served on a plate of bat soup ,,"North Region, Singapore"
,,,,,,,,,,,,,,,,,,,,,,,,,,,,,,,,,,,,,,,,,,,,,,,,,,,1220950560746151936,"i smell a rat and its gonna be gooddddd  
  singapore https www instagram compb7u15hjfdys igshid 1l82mddsgp0a0",,"Central Region, Singapore"
,,,,,,,,,,,,,,,,,,,,,,,,,,,,,,,,,,,,,,,,,,,,,,,,,,,1220714445074288641,"one capsule does it all soluball gives you an option on how you want your laundry to look and smell 
  pic twitter comiuekslb4zd",,Singapore
,,,,,,,,,,,,,,,,,,,,,,,,,,,,,,,,,,,,,,,,,,,,,,,,,,,1220710796138815488,baking in process hehe these just smell so good the colors are so vivid  seriously they are really worth my effort ytd let my colleague tried she like it too not too sweet but she said https www instagram compb7ti20hnlj3 igshid 1lshev91fox2v,,"East Region, Singapore"
,,,,,,,,,,,,,,,,,,,,,,,,,,,,,,,,,,,,,,,,,,,,,,,,,,,1220672947259445248,every time i smell my roll up lipstick i keep thinking of the time when i was younger where i used to bite my moms lipsticks  got weird habits back then and i was pretty bored,,"North Region, Singapore"
bakkwa,-0.0008344238740392029,0.01240578293800354,-0.008395757526159286,-0.01193331554532051,0.003046320518478751,0.008468315936625004,0.0031556005124002695,0.0015732758911326528,0.0016901165945455432,0.002166903577744961,-0.0016231745248660445,-0.00214643613435328,-0.03795735538005829,0.0051911999471485615,-0.0004436844901647419,0.00844329223036766,0.0008543683215975761,0.0018063116585835814,-0.0003695935301948339,0.012197794392704964,-0.0017891383031383157,-0.0041063092648983,0.0027997710276395082,-0.006591809447854757,0.001503144740127027,0.0010241166455671191,-0.010014885105192661,-0.002279645064845681,0.007138786371797323,-0.004262429662048817,0.0009276276687160134,0.00010872843267861754,-0.0059898323379457,-0.009765392169356346,0.001467440975829959,0.0008339568157680333,-0.0015821442939341068,0.005244158674031496,-0.0024956888519227505,0.007568839471787214,0.006775351241230965,-0.00849134474992752,-0.0061576878651976585,0.0003426798793952912,-0.0007010082481428981,0.009278753772377968,-0.004510920029133558,-0.005724763497710228,-0.005681650247424841,-0.001215972239151597,1220341323191898113,the smell of bakkwa is delightful,,"West Region, Singapore"
,,,,,,,,,,,,,,,,,,,,,,,,,,,,,,,,,,,,,,,,,,,,,,,,,,,1220313974173908992,i will not let this woman ruin my zen tmr smell my pits u pesky bitch ,,"East Region, Singapore"
,,,,,,,,,,,,,,,,,,,,,,,,,,,,,,,,,,,,,,,,,,,,,,,,,,,1220248778759794688,"just the way i like it 

gfl could afford to get darker too yuzhong is definitely holding back i can smell it either that or goddamn t doll backups are too convenient fuck ",,"North-East Region, Singapore"
,,,,,,,,,,,,,,,,,,,,,,,,,,,,,,,,,,,,,,,,,,,,,,,,,,,1220198670286503942,no girls smell of curry in the air here and i love it,,"East Region, Singapore"
coffee,-0.0867416113615036,-0.4765028953552246,-0.02623920328915119,-0.13472190499305725,0.19373895227909088,0.4504036605358124,0.6136510968208313,-1.139238715171814,0.23777195811271667,-0.24872244894504547,-0.6400569677352905,-0.365855872631073,-4.707646369934082,-0.16071462631225586,0.21385450661182404,0.44743838906288147,1.0683705806732178,-0.8425001502037048,0.1546715497970581,-0.04219743236899376,-0.8757463693618774,-0.3653835952281952,-0.05822507292032242,-0.4916245937347412,1.0045206546783447,0.8779119253158569,0.010069401934742928,0.02309364452958107,0.937280535697937,-0.5717506408691406,0.09294737130403519,0.1602906435728073,-1.1906903982162476,0.08200212568044662,0.11478094011545181,-0.2994445264339447,0.12050668895244598,0.5409900546073914,1.0893235206604004,2.093777656555176,-1.0750913619995117,0.18031461536884308,-0.9597145915031433,-0.40113505721092224,1.2359700202941895,0.6872273683547974,0.20897416770458221,0.08360352367162704,-0.9113126397132874,0.31875312328338623,1220167059985715200,walking along the streets of cbd and the smell of coffee is permeating through the air ,,"Central Region, Singapore"
student,1.3584872484207153,0.6000213623046875,0.27832114696502686,-0.5799003839492798,-0.25083673000335693,0.2515151798725128,1.1758977174758911,-0.4172344207763672,0.09332776069641113,-0.05962643772363663,-0.9312198758125305,-0.14690439403057098,-3.241032361984253,0.5887924432754517,1.2181419134140015,0.28945085406303406,-0.3241609036922455,-0.0990738645195961,-0.1546124368906021,0.1353260725736618,-0.3643738031387329,0.2427937388420105,-0.030461743474006653,-0.6764528751373291,-0.2233009934425354,0.733086109161377,0.8381713032722473,-0.8956152200698853,0.28745025396347046,0.2987545430660248,0.282986044883728,-1.221853256225586,0.4289082884788513,-0.41324692964553833,0.494956374168396,-0.3469621241092682,0.156753808259964,1.254786729812622,0.3857421875,-1.370195984840393,-0.6110225319862366,0.47678208351135254,-0.4539160430431366,0.28197193145751953,0.5133399367332458,-0.42869773507118225,0.03400937467813492,-0.000563392648473382,-0.431636780500412,-0.44211769104003906,1220123983741251584,how is it only 7 19am and you def look like a poly student smell like ass ,,"Central Region, Singapore"
,,,,,,,,,,,,,,,,,,,,,,,,,,,,,,,,,,,,,,,,,,,,,,,,,,,1219617746834481152,"soluball gives you an option on how you want your laundry to look and smell it comes with features we know you will love 

  pic twitter comebajhfji4v",,Singapore
cigarettes,-0.09059087187051773,-0.27149853110313416,-0.8858024477958679,0.7303953170776367,0.40573227405548096,0.7233797907829285,0.26818880438804626,-0.40672972798347473,0.4323238730430603,-0.08812735974788666,0.29046475887298584,-0.299944669008255,-2.7381763458251953,0.5460869669914246,0.34440648555755615,0.8483392596244812,-0.16781747341156006,-1.2689529657363892,0.3413011431694031,0.5510806441307068,0.6139825582504272,0.017795613035559654,0.8542772531509399,-0.32691237330436707,0.7976859211921692,0.8786497712135315,-0.12476490437984467,1.052270770072937,-0.37144342064857483,0.6506093144416809,0.15171869099140167,0.748833179473877,-0.6182588338851929,0.5335434675216675,-0.22537840902805328,-0.41772177815437317,-0.8736364245414734,0.42286354303359985,0.29749375581741333,0.30982157588005066,0.8701295852661133,-0.49644148349761963,-2.3353235721588135,-1.4883726835250854,0.050222281366586685,-0.7447251677513123,0.3892000913619995,1.2725579738616943,-1.6518670320510864,0.6312028765678406,1219609989783773184,why do peanuts and cigarettes smell h th e same to me rn i ,,"Central Region, Singapore"
,,,,,,,,,,,,,,,,,,,,,,,,,,,,,,,,,,,,,,,,,,,,,,,,,,,1219493080564260864,i can smell my neighbour cooking up some blastoise masala thosai while im sat here in my western household eating croissant and sausages for fucking lunch ,,"North-East Region, Singapore"
pandan,-1.0570683479309082,-0.8264931440353394,0.5177872776985168,-0.5110119581222534,0.4047524333000183,0.03565874695777893,-0.9895061254501343,-0.8078193068504333,0.4753611385822296,0.33144885301589966,-0.9846917390823364,-0.34188875555992126,-0.6961079835891724,-0.6533762812614441,0.6428953409194946,0.04683177173137665,0.7647865414619446,-0.5603558421134949,-0.06829056888818741,0.4442330598831177,0.4032403826713562,-1.1281875371932983,-0.592623770236969,-0.8869200944900513,-0.4378269612789154,-0.19199047982692719,-0.6711510419845581,-0.6970510482788086,0.561242938041687,-0.5159752368927002,0.673751950263977,0.11860042065382004,-0.05027506500482559,-0.5171796679496765,-0.8493344187736511,-0.583615243434906,0.1714790165424347,0.5802280902862549,1.4015334844589233,-0.19577324390411377,-0.7022847533226013,-0.38477522134780884,-0.04588398337364197,-1.00032377243042,0.0034975598100572824,0.7980225682258606,-0.38925495743751526,-0.37868353724479675,0.9962162375450134,1.051314353942871,1219141744089911297,the smell of baking pandan waffles is literally one of my favorite things on the planet,,"Central Region, Singapore"
,,,,,,,,,,,,,,,,,,,,,,,,,,,,,,,,,,,,,,,,,,,,,,,,,,,1218956675303919616,i can smell the photo ,,"Central Region, Singapore"
,,,,,,,,,,,,,,,,,,,,,,,,,,,,,,,,,,,,,,,,,,,,,,,,,,,1218948789601366016,they say blood smell like iron also ,,"Central Region, Singapore"
baby,-1.0110241174697876,0.03289872780442238,-0.16463705897331238,0.16278129816055298,-1.0620701313018799,-0.057597577571868896,1.0684974193572998,0.8639646768569946,-0.10428878664970398,0.039191022515296936,-0.8739312887191772,0.9610492587089539,-4.526795387268066,-0.11927566677331924,-0.5085484385490417,0.6761384606361389,-0.5991979837417603,-0.5354896783828735,-0.7211113572120667,-0.21958138048648834,-0.4459485411643982,0.25029584765434265,0.3551572263240814,0.5007596611976624,0.19634884595870972,-0.1711656153202057,-0.06763432919979095,-0.31718698143959045,0.6611410975456238,-0.5756000876426697,-0.8770847320556641,0.36177027225494385,-0.2243533730506897,0.060196660459041595,-0.5447565317153931,-0.25079700350761414,0.1773788332939148,0.2640523314476013,-0.3857659697532654,0.032749008387327194,-1.9082351922988892,-0.8337205052375793,0.051535870879888535,0.4798996150493622,-0.17245949804782867,0.06046130135655403,0.41325125098228455,0.06504130363464355,0.26694393157958984,0.6291639804840088,1218921642052612099,aku suka bau dan cium bayi kecil comel idk what make the baby smell so nice,,"Central Region, Singapore"
sweat,-1.2250920534133911,-0.8715925216674805,0.37610846757888794,0.17155885696411133,0.26698818802833557,0.8569077253341675,1.1626036167144775,0.2080836296081543,0.23625819385051727,0.6808334589004517,0.030313042923808098,0.6240814924240112,-2.9324073791503906,0.5550224184989929,-0.4596620500087738,0.5610249638557434,-0.30462613701820374,-0.5158624053001404,-0.702052891254425,-0.7962872982025146,-0.7737172842025757,0.27766019105911255,0.7839811444282532,0.3532061278820038,0.8031315803527832,0.8475950360298157,0.2415756732225418,1.1104025840759277,-0.8428592085838318,-0.023838650435209274,0.056846942752599716,0.5475032925605774,-0.1691841334104538,0.4323437809944153,0.11723709851503372,-0.25975221395492554,-1.1007760763168335,0.09271623194217682,0.556743860244751,1.2269822359085083,0.02772817760705948,-0.4727521538734436,-0.8094624280929565,-0.22031013667583466,0.23531723022460938,-0.2344556748867035,0.8743484020233154,0.8163211941719055,0.4969300925731659,-0.15614470839500427,1218901725316177921,no they slowly creep into my personal space i dont mind if you smell good but you smell like sweat and cheap deodorant,,"Central Region, Singapore"
,,,,,,,,,,,,,,,,,,,,,,,,,,,,,,,,,,,,,,,,,,,,,,,,,,,1218539814556823553,had hotpot before my flight now i smell like mala  crab  pork belly im sorry person who has to sit next to me at our flight later ,crab,"East Region, Singapore"
success,0.12805671989917755,0.018612537533044815,-0.1712220460176468,0.020826449617743492,1.4341384172439575,1.2885761260986328,0.8696415424346924,-0.21401599049568176,-0.896760880947113,-0.1447237730026245,0.17663878202438354,0.26762115955352783,-3.6796085834503174,0.44916194677352905,-0.1564984768629074,0.7740034461021423,0.13685408234596252,0.9350462555885315,0.16058048605918884,0.06095641851425171,-0.03570953384041786,-0.005828460678458214,-0.4893437325954437,1.118465542793274,0.44880765676498413,1.466047763824463,0.43324658274650574,-0.23738928139209747,0.6001710295677185,-0.013997345231473446,0.6981218457221985,-1.2912675142288208,-0.2784920036792755,0.14426720142364502,0.9099201560020447,0.6808765530586243,0.46328821778297424,0.5213437080383301,-0.0490584671497345,-0.36839404702186584,0.028451915830373764,-0.25303101539611816,0.53621506690979,-0.6356804370880127,0.253055214881897,-0.7624397277832031,-0.5277241468429565,0.4132592976093292,-0.07571619004011154,0.16672702133655548,1218473331864690688,"1801 queen of bows wands 

the universe has presented the smell of success and potential from your fight keep going baby you are protected avoid any heartburns from petty rivalry you are guided towards your path not theirs 

my higher self came today ",,"Central Region, Singapore"
cologne,-1.5688972473144531,-0.49664202332496643,0.1990983784198761,0.0376763790845871,-0.5095236301422119,0.227667436003685,0.8595471978187561,-0.22863514721393585,-0.02561335451900959,0.08133460581302643,-0.1892608255147934,0.38263872265815735,-2.1314268112182617,0.5650292038917542,0.7263980507850647,0.9522865414619446,0.3587547242641449,-0.7302178144454956,0.12289801239967346,-0.22421672940254211,0.11237576603889465,-0.7773564457893372,0.7378792762756348,-0.45233461260795593,1.0689741373062134,1.2972729206085205,1.5859166383743286,1.4071111679077148,-0.3614455461502075,-0.5366939902305603,-0.03630544990301132,0.6422454118728638,0.3403925895690918,-0.5282639861106873,0.5764236450195312,-0.8132527470588684,-0.7675728797912598,0.7942748665809631,-0.3741418123245239,1.33333158493042,0.49982526898384094,-0.607679009437561,-1.580583930015564,-0.14852699637413025,-0.5185170769691467,-0.13240505754947662,1.4014887809753418,-0.45690828561782837,-0.3638039529323578,-0.29462048411369324,1218177368533028866,"he told me about the different uses and i was surprised 

wow my cologne smells gwapo today

your hand sanitizer smells pogi 
 
both words mean good lookingattractivehandsome

they use handsome for smells and i love it 

you smell handsome 

can you imagine so cute",,"North Region, Singapore"
iconic,-0.2896174490451813,-0.10403928905725479,0.87300705909729,0.4135899841785431,0.7212060689926147,-0.7779182195663452,0.7718069553375244,-0.18508751690387726,-0.6720137596130371,-0.6236861944198608,0.12248656898736954,0.32984301447868347,-2.071683406829834,0.5905380845069885,0.4927302300930023,0.2714388072490692,0.1656433641910553,0.4344668686389923,0.2753906846046448,0.5842171907424927,0.3855504095554352,-0.0992858037352562,-0.28025105595588684,-1.0668821334838867,-0.694381594657898,1.4037353992462158,-0.7272491455078125,0.22955988347530365,-0.20644325017929077,-0.32703354954719543,0.1053423210978508,0.07309144735336304,-0.024034423753619194,-0.5212184190750122,0.7932563424110413,0.13868451118469238,0.17107689380645752,-0.13871462643146515,-0.2093057781457901,-0.7611052989959717,0.12334974110126495,-0.570554792881012,0.014276218600571156,-0.3220299482345581,-0.9939638376235962,0.8165017366409302,0.7172386050224304,-0.12510119378566742,-0.46777406334877014,-0.04455817490816116,1218021200636661760,"thank you famousamossg for this super amazing surprise i am so happy to receive this hamper one of my guilty pleasures is cookies the biggest thing i like about them is that iconic smell yums
 
cny https www instagram compb7abxbeh8n igshid wlhhxvhirshm",,"Central Region, Singapore"
,,,,,,,,,,,,,,,,,,,,,,,,,,,,,,,,,,,,,,,,,,,,,,,,,,,1217849698842624000,all i did was ask a friend if he could smell the haze took the lift and it smelt like frangipanni went out of the lift and a girl was sitting by the stairs facing away i didnt bother nobody i was just worried by the haze dont bother me please ,,"North-East Region, Singapore"
,,,,,,,,,,,,,,,,,,,,,,,,,,,,,,,,,,,,,,,,,,,,,,,,,,,1217788413811642371,why does someone smell like that versace eros perfume  the coffeeshop wtf yes let the smell roam ard i love it,,"North-East Region, Singapore"
hamster,-0.9487852454185486,0.5651562213897705,-0.6008495688438416,0.3390757143497467,-0.8857280015945435,-0.7377413511276245,-0.0357099249958992,0.161395862698555,0.4754413962364197,0.0423816442489624,0.30520641803741455,0.8688166737556458,-2.0306499004364014,-0.0868242159485817,0.35016170144081116,0.4962873160839081,0.2938706576824188,-1.0521690845489502,-0.24841640889644623,-0.09390822052955627,0.2085200548171997,1.3224115371704102,0.03372972458600998,-0.18019215762615204,-0.10120818018913269,0.08256527781486511,-0.8308530449867249,-0.7521145343780518,0.37251371145248413,-0.12066907435655594,-0.38671720027923584,-0.1528247743844986,0.30838707089424133,-0.8826993703842163,-0.6333882808685303,-0.10878351330757141,0.1806880384683609,-0.8026597499847412,-0.2650896906852722,-0.2679126262664795,-0.9045698642730713,-0.8576319813728333,-1.321656584739685,-0.49360373616218567,0.26433855295181274,0.5717126727104187,0.31758537888526917,0.6775478720664978,0.46899673342704773,-0.3471704125404358,1217750797007511552,"and i was like i hamster soap 

uhuh didnt say that was a bad thing though now you just smell like my hamster elsa after her bath 

idk to be offended or svsvdshbsh",,"East Region, Singapore"
vomit,-0.3856445848941803,0.07783360034227371,0.4766661524772644,-0.07392552495002747,-0.19705025851726532,-0.09228147566318512,0.8757094144821167,-0.48977649211883545,-0.07890147715806961,0.49259039759635925,0.21609899401664734,-0.7494149804115295,-2.2341361045837402,-0.22089670598506927,-0.24465183913707733,0.9404544830322266,0.47932732105255127,-1.2138572931289673,-0.05851287022233009,-0.6736605763435364,-0.04792307689785957,-0.5254759192466736,0.43192633986473083,0.8533089756965637,0.17189890146255493,0.7336985468864441,-0.1769603192806244,0.5276364684104919,-0.5128642320632935,0.772593080997467,-0.01507814321666956,0.4889327585697174,-0.42502009868621826,-0.2608863115310669,-0.4004308879375458,-0.31393736600875854,-1.035006046295166,-0.9870228171348572,0.4160189628601074,0.3025047183036804,1.1629486083984375,-1.0856701135635376,-1.4528905153274536,-0.2705937922000885,0.9309924840927124,0.9225490689277649,1.0478782653808594,0.5722416043281555,0.11985501646995544,0.5057325959205627,1217719048089169920,i dunno like always after you makan kenyang already you go b2 lift and smell like wanna vomit sial,,"East Region, Singapore"
stuffd,-0.008602176792919636,-0.005753216799348593,-0.00455839280039072,0.0007350769592449069,-0.009043614380061626,-0.00910319946706295,-0.005262105725705624,-0.0012222364312037826,-0.008567137643694878,0.0101151242852211,-0.0024481022264808416,-0.0005737477331422269,0.0032607256434857845,-0.00928397849202156,-0.001612196210771799,-0.005527011584490538,0.0011590826325118542,0.006475040689110756,-0.0025810659863054752,0.0037480304017663,0.0019705253653228283,-0.0051798406057059765,-0.002507115714251995,0.00665685161948204,-0.002274398459121585,0.007947918958961964,-0.0008809329010546207,0.0034487692173570395,0.0037399970460683107,-0.008113058283925056,-0.008733528666198254,0.002795788226649165,0.004209715407341719,-0.008204887621104717,-0.006482375785708427,-0.004589994437992573,0.007025005295872688,-0.01021347101777792,-0.005090851336717606,0.009246931411325932,-0.008052382618188858,-0.0009358455426990986,0.002655408112332225,0.003794355783611536,-0.009749697521328926,0.006090131588280201,0.002806713804602623,0.006606759037822485,-0.000584061723202467,0.009250740520656109,1217718546303610880,kanina cb the stuffd smell like bangkai,,"East Region, Singapore"
pvc,-0.8522009253501892,-0.994547963142395,0.01727038435637951,0.012594377622008324,0.40319955348968506,0.031227057799696922,-0.08958753943443298,-0.7465061545372009,0.1148495078086853,-0.3127519190311432,0.46221134066581726,1.3189568519592285,-0.7806345224380493,0.12434710562229156,0.08532904088497162,-0.2945251166820526,0.38114747405052185,0.0002903478452935815,1.071192741394043,0.3697969913482666,-1.3731433153152466,-0.16650444269180298,1.0529109239578247,-0.6175957918167114,-0.719811737537384,0.24219068884849548,-0.05489061400294304,1.0523617267608643,-0.4121590852737427,0.2493186593055725,0.9409838318824768,0.04411870986223221,0.03318659961223602,-0.6753034591674805,0.012054250575602055,-1.1363604068756104,-0.43042221665382385,0.1717948466539383,0.5714787840843201,0.18318095803260803,-0.5064312815666199,0.21675007045269012,-0.2437579333782196,-0.15490937232971191,0.3118734359741211,-0.3815356492996216,0.2000810205936432,0.3673267066478729,0.22775065898895264,-0.36566099524497986,1217630625705758720,happiness is me maybe 4 or 5 or 6 the smell of pvc and warm milk wafting through the air as i bodyslam my blues clues inflatable chair pic twitter com7afohifjji,,"East Region, Singapore"
,,,,,,,,,,,,,,,,,,,,,,,,,,,,,,,,,,,,,,,,,,,,,,,,,,,1217603959776518144,"i can smell the nemo and literally tasting it now where is nemo 
 
 
 
 ofinstagram  https www instagram compb7xechspv x igshid 1l2arf9rxplu4",,"Central Region, Singapore"
,,,,,,,,,,,,,,,,,,,,,,,,,,,,,,,,,,,,,,,,,,,,,,,,,,,1217489846119346177,"chemical like smell in your bmw cabin feel nauseous after a drive 

based on those symptoms dont be surprised if you are breathing aircon gas 

we confirmed the case by using gas detector rather obvious from https www instagram compb7wqetmdeix igshid zy3eivr5tnrj",,"Central Region, Singapore"
,,,,,,,,,,,,,,,,,,,,,,,,,,,,,,,,,,,,,,,,,,,,,,,,,,,1217450341215555584,it can get stressful when ppl smoke outside my house and the smell enters through the window nak tutup tingkap nanti org ckp aku ngada2 pulak masalahnya aku ada valid reason ,,"North Region, Singapore"
,,,,,,,,,,,,,,,,,,,,,,,,,,,,,,,,,,,,,,,,,,,,,,,,,,,1217295430792310784,ohhhh the smell of durian ,,"North Region, Singapore"
rubber,-1.0739741325378418,-0.7809537649154663,0.44552385807037354,0.46799373626708984,0.049985356628894806,-0.2163482904434204,0.32377561926841736,-0.1542743742465973,1.2663319110870361,0.2902018427848816,0.3334024250507355,0.9297035336494446,-2.4403388500213623,-0.14270341396331787,0.1910180151462555,-0.09854879230260849,-0.18805593252182007,-0.551533043384552,0.6732497811317444,-0.07587481290102005,-1.4939725399017334,0.6596187353134155,1.3520195484161377,-0.36385348439216614,-0.13074003159999847,0.7410992980003357,-0.9014000296592712,0.6990756392478943,-0.41372188925743103,-0.4724104106426239,1.0556784868240356,0.25704100728034973,-0.07477956265211105,0.012705104425549507,0.2726261615753174,-0.6890602707862854,-0.27697187662124634,0.5373386740684509,0.25555670261383057,0.09840994328260422,-0.16813424229621887,0.41553395986557007,-0.3442247211933136,-0.25953739881515503,0.33278796076774597,-0.08643318712711334,0.49510788917541504,0.29370057582855225,0.9481654167175293,0.4051395654678345,1217275300762963969,smell of rubber in the east pasir ris anyone else smell that ,,"East Region, Singapore"
,,,,,,,,,,,,,,,,,,,,,,,,,,,,,,,,,,,,,,,,,,,,,,,,,,,1217227097678069760,"more varieties of food coming up 

it just got to smell good and taste good ",,"North Region, Singapore"
,,,,,,,,,,,,,,,,,,,,,,,,,,,,,,,,,,,,,,,,,,,,,,,,,,,1216642966892072961,shit at my corridor la early morning open my door can smell cb,,"North-East Region, Singapore"
,,,,,,,,,,,,,,,,,,,,,,,,,,,,,,,,,,,,,,,,,,,,,,,,,,,1216618826747367424,his perfume though literally attracted my attention the smell,,"Central Region, Singapore"
vaj,-0.2666839063167572,-0.3078443706035614,-0.07571274042129517,0.3405633568763733,-0.5522900819778442,-0.3980090022087097,-0.4011114537715912,0.3707067668437958,0.05869274213910103,-0.744818925857544,-0.47206324338912964,0.04571047052741051,-0.19943563640117645,-0.09152925759553909,0.09316010028123856,-0.20797906816005707,0.19061583280563354,-0.001642440096475184,0.03745019808411598,0.46390172839164734,-0.09284930676221848,0.4999238848686218,0.27247628569602966,0.5710549354553223,-0.35406631231307983,0.4668702781200409,0.19598160684108734,-0.09952991455793381,-0.7936217188835144,0.5789618492126465,0.7461908459663391,0.596622884273529,0.7718098163604736,-0.6687785983085632,-0.6286501288414001,-0.14932899177074432,0.24743717908859253,0.3339517116546631,-0.3448511064052582,0.2879253625869751,0.8161401152610779,-0.35508301854133606,-0.23745523393154144,0.18485166132450104,0.2124914973974228,0.11205178499221802,0.6442393064498901,-0.0637921690940857,0.8052156567573547,0.010684645734727383,1216526176555945985,if only gwyneth paltrow spent her money on worthwhile causes instead of scamming people into buying her exorbitantly priced alternative medicine products such as candles that smell like her vaj ,,"Central Region, Singapore"
,,,,,,,,,,,,,,,,,,,,,,,,,,,,,,,,,,,,,,,,,,,,,,,,,,,1216432861533704193,actually to me it doesnt smell that much  maybe im a weird caucasian with eastern taste buds lol ,,"Central Region, Singapore"
,,,,,,,,,,,,,,,,,,,,,,,,,,,,,,,,,,,,,,,,,,,,,,,,,,,1216367489463906305,they can smell the merc smell on u,,"North Region, Singapore"
,,,,,,,,,,,,,,,,,,,,,,,,,,,,,,,,,,,,,,,,,,,,,,,,,,,1216313679290998785,"stop and smell the lisianthus paulruddofficial fronts our january wild and free issue as he chats marvelantman the new and the money hes owed  
 
editor in chief  https www instagram compb7n5sbfgd9o igshid 1480rm0cjvpvr",,"Central Region, Singapore"
no,0.37272000312805176,0.2027900069952011,0.053700000047683716,0.3299899995326996,-0.13065999746322632,0.19181999564170837,0.6456999778747559,0.6459299921989441,0.8151199817657471,-0.7524399757385254,0.15579000115394592,-0.6337100267410278,-4.251999855041504,-0.18803000450134277,-0.06071700155735016,0.0926399976015091,-0.17079000174999237,-0.19315999746322632,1.0575000047683716,-0.7616599798202515,0.10429999977350235,0.6438599824905396,0.7518399953842163,0.6412500143051147,-0.22271999716758728,-3.223099946975708,0.482589989900589,-0.37567999958992004,0.17236000299453735,-0.618179976940155,-0.2067600041627884,0.39851000905036926,1.12090003490448,-0.004718400072306395,-0.4479300081729889,0.30246999859809875,-0.6141999959945679,-0.12197999656200409,-1.2144999504089355,0.547469973564148,-2.197700023651123,0.8562899827957153,0.8752999901771545,-0.3835799992084503,0.17813000082969666,-0.3025600016117096,0.6627600193023682,1.0098999738693237,-0.0744279995560646,-0.7056699991226196,1216302652797149184,mum gave me this durian nicely packed no smell but when you open it wah   first centre office https www instagram compb7n0rtah8 o igshid 3jq7lc87lvns,first,"North-East Region, Singapore"
,,,,,,,,,,,,,,,,,,,,,,,,,,,,,,,,,,,,,,,,,,,,,,,,,,,1216257616747220993,i smell tom yum better be some hot soup my cramp is killing me,,"West Region, Singapore"
,,,,,,,,,,,,,,,,,,,,,,,,,,,,,,,,,,,,,,,,,,,,,,,,,,,1215742581637697536,why the hell do i smell noodles,,"Central Region, Singapore"
,,,,,,,,,,,,,,,,,,,,,,,,,,,,,,,,,,,,,,,,,,,,,,,,,,,1215632396038606849,"cant wait to smell 

pretty much the only world that i can afford   jurong east singapore https www instagram compb7jdelqgx0l igshid y787t55gmzji",jurong east,"West Region, Singapore"
,,,,,,,,,,,,,,,,,,,,,,,,,,,,,,,,,,,,,,,,,,,,,,,,,,,1215520585599668226,smell right and wash your own underwear  the panic room sg https www instagram compb7iqocghoqp igshid 16o7xagmo093s,,"Central Region, Singapore"
,,,,,,,,,,,,,,,,,,,,,,,,,,,,,,,,,,,,,,,,,,,,,,,,,,,1215490873611284480,time to take a rest life doesnt have to go at full speed all the time stop and smell the flowers and if there are no flowers just smell whatever you can smell right now all i can smell is the smell from my https www instagram compb7idhobhgfp igshid 6i0mnz4myplu,,"Central Region, Singapore"
lightweights,1.0418423414230347,0.4809768497943878,0.16164816915988922,0.18398092687129974,-0.017860226333141327,0.011181866750121117,0.14873051643371582,-0.07674185186624527,0.25493690371513367,-0.38447219133377075,0.0298589039593935,-0.037060562521219254,-0.109104685485363,-0.07668963074684143,0.5293129682540894,-0.21047069132328033,0.31420478224754333,-0.5968936681747437,-0.07795573025941849,1.1361953020095825,-0.2237413376569748,0.006300785578787327,0.49683284759521484,0.19870992004871368,0.3846965432167053,1.4451491832733154,-0.5534347295761108,0.23753193020820618,-1.3172996044158936,-0.4986644983291626,0.8339691758155823,0.31630247831344604,0.5286313891410828,1.1511664390563965,-0.7027247548103333,-0.39844536781311035,0.005764439236372709,0.31925565004348755,-0.33152684569358826,0.6220331788063049,1.9640471935272217,0.4229719042778015,0.39068400859832764,0.013020941987633705,-0.19432513415813446,-0.20937074720859528,0.24472616612911224,0.7111310958862305,0.24342462420463562,0.027936609461903572,1214816227618459648,tbh our skin need spf every single day no matter where you go so here i share sunscreen that i used everyday  lightweights smell good and not sticky as well  pic twitter com8tpe4tul51,,"Central Region, Singapore"
,,,,,,,,,,,,,,,,,,,,,,,,,,,,,,,,,,,,,,,,,,,,,,,,,,,1214583193392701440,never tried it i cant stand the smell  https twitter comashril92status1214359696087252993,,"West Region, Singapore"
it,-0.04110100120306015,0.19112999737262726,0.09549900144338608,0.0028301000129431486,0.09025900065898895,0.731909990310669,0.8512899875640869,0.22551999986171722,0.27452999353408813,0.7409200072288513,0.3416700065135956,-0.11665999889373779,-6.310100078582764,-0.20170000195503235,-0.31718000769615173,-0.05216800048947334,0.4715699851512909,-0.0602869987487793,-0.6726300120353699,-0.1098800003528595,-0.0308810006827116,0.1500300019979477,0.044828999787569046,0.7716100215911865,0.08088099956512451,0.4584600031375885,0.41312000155448914,0.3734300136566162,0.5302000045776367,-0.05388199910521507,-0.4480400085449219,0.6614199876785278,-0.03150299936532974,-0.4093100130558014,0.5275300145149231,0.3552199900150299,-0.2036300003528595,0.019589999690651894,0.12759000062942505,0.19731000065803528,-0.8081799745559692,-0.12084999680519104,0.2566800117492676,-0.0622359998524189,-0.022257000207901,-0.12613999843597412,0.02071000076830387,-0.2968499958515167,-0.3196899890899658,0.3080799877643585,1214343385567248384,oh my does it smell ,,"Central Region, Singapore"
,,,,,,,,,,,,,,,,,,,,,,,,,,,,,,,,,,,,,,,,,,,,,,,,,,,1214077133867208710,why i smell otak2 inside train haisss,,"North Region, Singapore"
fresh,-0.70262610912323,-0.9907792210578918,0.1398799568414688,-0.4020299017429352,0.6510413289070129,0.6088506579399109,0.3578009009361267,-0.1710917353630066,-0.016071824356913567,-0.01131792739033699,-1.0005302429199219,0.3698248863220215,-4.142666816711426,-0.07344883680343628,-0.051116909831762314,-0.05602014437317848,0.20888520777225494,-0.43524354696273804,-0.3306858241558075,0.043692197650671005,-1.3613557815551758,-0.2786851227283478,-0.6255978941917419,-0.21592380106449127,-0.3158140778541565,0.55130934715271,-0.19718404114246368,0.4773326516151428,-0.19211862981319427,-0.4682462215423584,-0.2891375720500946,1.1243003606796265,-1.068320393562317,0.17642386257648468,0.27922192215919495,-0.19689901173114777,-0.3122186064720154,0.30543920397758484,0.6343178749084473,0.9745644330978394,-1.2623167037963867,-0.6535583138465881,0.09833317250013351,-0.47152456641197205,0.5345522165298462,0.23293526470661163,0.4176909327507019,0.17409129440784454,-0.6049403548240662,0.7913725972175598,1213792192025612288,nothing like the smell of a fresh legal notice first thing in the morning ,,"Central Region, Singapore"
singapore,-0.23647277057170868,1.0957233905792236,0.23451539874076843,-1.1361662149429321,-0.28500601649284363,0.12143093347549438,1.0754597187042236,0.26833900809288025,0.9876983165740967,-0.006528230383992195,-0.5415263175964355,-1.1204469203948975,-4.827154159545898,0.47558027505874634,1.115785837173462,-0.1535222828388214,0.4127684235572815,-0.7246326804161072,-0.3212725520133972,-0.11509239673614502,0.5717050433158875,-1.911184549331665,-0.5860650539398193,-0.3183497190475464,-0.08650784939527512,0.9319314956665039,0.1548510491847992,-0.21961672604084015,0.9575515389442444,-1.0976523160934448,0.2339501529932022,-0.9409092664718628,0.5440430641174316,-0.5069707036018372,1.0075651407241821,-0.8248381614685059,-0.14827731251716614,0.5367372632026672,0.9912871718406677,0.26441362500190735,-1.3523449897766113,-0.09230467677116394,-0.7369691729545593,0.023710284382104874,-0.33178630471229553,0.2448877990245819,-0.31059691309928894,-0.5414812564849854,0.11571746319532394,1.0227315425872803,1213693805620105216,its been real singapore smell ya later  pic twitter comozqw7gxjy8,,Singapore Changi Airport (SIN)
,,,,,,,,,,,,,,,,,,,,,,,,,,,,,,,,,,,,,,,,,,,,,,,,,,,1213119682175094789,"i fucking hate how i smell 

i smell brie i smell comt i smell too much",,"North-East Region, Singapore"
,,,,,,,,,,,,,,,,,,,,,,,,,,,,,,,,,,,,,,,,,,,,,,,,,,,1213001554388602881,sagam aa smell ke pakkana padesta nenu,,"Central Region, Singapore"
caprifraser,-0.012721564620733261,-0.002791512990370393,0.0025519374758005142,-0.0034281103871762753,-0.0008453375194221735,0.0020195411052554846,0.0004997455980628729,-0.00024634579312987626,0.003253030823543668,0.002150868996977806,-0.003584297141060233,0.004099268466234207,-0.03712999448180199,-0.010893033817410469,-0.00016141182277351618,-0.0041376519948244095,0.011302814818918705,-0.003977780230343342,0.006029979791492224,0.010359114967286587,0.007084324490278959,0.007170189172029495,-0.004536503925919533,0.007861348800361156,-0.009954034350812435,0.002325810492038727,-0.005282056983560324,2.3607699404237792e-05,0.0029993513599038124,0.00352520146407187,-0.007394422776997089,0.012785395607352257,0.004537855740636587,-0.001288962084800005,-0.010923952795565128,-0.012962687760591507,-0.007571476045995951,0.005960503593087196,0.0034738669637590647,-0.0016964980168268085,-0.010533532127737999,0.002155288355425,-0.00704295514151454,0.007284149527549744,0.001072077313438058,0.013211877085268497,-0.00020724700880236924,-0.009302565827965736,0.00014124643348623067,0.008831781335175037,1212960573219983362,no the smell of caprifraser hotels lmao https twitter comhoiistichoneystatus1212500908900323337,,"West Region, Singapore"
,,,,,,,,,,,,,,,,,,,,,,,,,,,,,,,,,,,,,,,,,,,,,,,,,,,1212873963392516096,"how to spot ignorance in mrt 
1 smell of smoke
2 sitting in the priorities seat

thats tell how selfish you are ",,"North-East Region, Singapore"
,,,,,,,,,,,,,,,,,,,,,,,,,,,,,,,,,,,,,,,,,,,,,,,,,,,1212362407613349890,"and then it grew on me i am starting to love the smell of garlic the sound of slicing onions that sizzle when you sear the steak 

little did i know i began to understand the beauty of being in the kitchen so i stepped out of my good paid job and joined my first kitchen job pic twitter com8q0x19ymrv",,"North-East Region, Singapore"
bts,-0.6825504899024963,1.1901347637176514,0.03636546432971954,-0.240409716963768,0.2730546295642853,-1.0357621908187866,1.3198870420455933,-0.1574755162000656,0.12027638405561447,-0.0035077885258942842,-0.18290431797504425,0.06128712370991707,-1.2118661403656006,0.6312349438667297,-0.2803947627544403,-0.4894571900367737,-0.21622058749198914,-0.386976957321167,-0.6721468567848206,-0.3115060329437256,-0.6583197712898254,-0.4651859402656555,0.42406517267227173,-0.8880487680435181,-0.16748520731925964,0.10276194661855698,0.04575812816619873,0.7314751744270325,-0.28760406374931335,0.34814175963401794,0.04371650889515877,-0.8855234980583191,-0.6425682902336121,-0.6884059906005859,1.2069871425628662,-0.9434536695480347,-1.0701067447662354,-0.13572701811790466,0.817499577999115,0.002721079858019948,-0.8714343309402466,-0.7597280144691467,0.041710611432790756,0.5052525401115417,-1.0254288911819458,0.47236889600753784,-0.12374968826770782,-1.2980602979660034,0.11677539348602295,-0.5231066346168518,1212270770493087749,seokjin looked into her camera waaaaaaaaaaaaaa ok so what perfume do they use how does bts smell like i wanna know  its the thing you have to only experience first hand to know  pic twitter combxsv4nt3em,,"North Region, Singapore"
your,-0.11311999708414078,-0.31411999464035034,-0.19829000532627106,0.9226999878883362,0.2112800031900406,0.061744000762701035,1.6083999872207642,0.012798000127077103,-0.2923099994659424,0.07405100017786026,-0.1600400060415268,0.13514000177383423,-6.246200084686279,-0.25641998648643494,-0.9118599891662598,-0.08133900165557861,0.5399900078773499,-0.15115000307559967,0.10113999992609024,-0.2591100037097931,-0.3298099935054779,0.18163999915122986,-0.18425999581813812,1.052299976348877,-0.7775800228118896,0.5199199914932251,0.5369499921798706,0.3890399932861328,0.7397300004959106,0.20600000023841858,-0.6977800130844116,-0.37922000885009766,-0.05548499897122383,-0.35069000720977783,0.8238099813461304,0.21544000506401062,0.5409799814224243,0.5997800230979919,-0.16841000318527222,-0.019626999273896217,-0.7559300065040588,-0.0731310024857521,-0.06080999970436096,0.052418000996112823,0.8532099723815918,-0.42587000131607056,0.5489100217819214,0.02326899953186512,0.6835200190544128,0.23964999616146088,1211869983107497984,give me your hoodie with your smell on it ,,"Central Region, Singapore"
,,,,,,,,,,,,,,,,,,,,,,,,,,,,,,,,,,,,,,,,,,,,,,,,,,,1211688855562141702,at the end of the day your feet will hurt your clothes will smell and you will feel like you have just run a marathon in clogs but it is the kind of hurt that will put a smile on your face because its a reminder that you are working hard to reach your goals ,,"North-East Region, Singapore"
creamsilk,-0.00623382767662406,-0.002097480930387974,0.006128397770226002,-0.0063019911758601665,-0.007924007251858711,-0.008552591316401958,0.004422090947628021,0.009604196064174175,-0.00816811341792345,-0.005567857064306736,0.0009097634465433657,0.0006169857224449515,-0.025331340730190277,0.0066178604029119015,0.002829433884471655,-0.0054146768525242805,0.0008705831714905798,0.0008863304392434657,-0.008078685961663723,-0.0055309259332716465,-0.0008751485729590058,0.00569144869223237,-0.006892384961247444,-0.005715042818337679,-0.008408878929913044,0.009479761123657227,0.001269884523935616,0.003300601150840521,0.002336330246180296,-0.0029012439772486687,0.0011344875674694777,0.010359871201217175,0.01009833812713623,0.0014103467110544443,0.006009950768202543,-0.0048494767397642136,0.0071325828321278095,0.009744863957166672,0.010170144028961658,0.004545692354440689,-0.012169844470918179,-0.0007239615079015493,0.0019196204375475645,-0.0106667997315526,0.007157941348850727,0.002305653179064393,-0.004939465783536434,0.0034715263172984123,-0.008188898675143719,-0.0009663437958806753,1211584416524296193,hahahahaha for some reason i hate the smell of creamsilk on other peoples hair https twitter compunongbayanstatus1211229668981895168,,"Central Region, Singapore"
,,,,,,,,,,,,,,,,,,,,,,,,,,,,,,,,,,,,,,,,,,,,,,,,,,,1211006262701383681,why indians always smell like must and curry ,,"Central Region, Singapore"
,,,,,,,,,,,,,,,,,,,,,,,,,,,,,,,,,,,,,,,,,,,,,,,,,,,1210787912603750400,u can smell him too right hahahahah,,"Central Region, Singapore"
,,,,,,,,,,,,,,,,,,,,,,,,,,,,,,,,,,,,,,,,,,,,,,,,,,,1210577540588244995,i can smell a name baby the rhino contest coming up https twitter comchannelnewsasiastatus1210478820458823680,,"Central Region, Singapore"
mmmm,-0.2547791600227356,0.1158638671040535,0.1502498835325241,-0.07260629534721375,0.25976112484931946,-0.26782652735710144,-0.4928729832172394,0.05320578068494797,0.621179461479187,-0.28132426738739014,-0.23825176060199738,-0.1180804967880249,0.1142411082983017,-0.11784636974334717,-0.1611757129430771,0.18776433169841766,0.7191885709762573,-0.08872970193624496,-0.15453647077083588,0.7773570418357849,0.089658722281456,-0.15306465327739716,0.7615334391593933,0.5769110918045044,0.010848121717572212,0.19795601069927216,0.19065767526626587,0.49683934450149536,0.5381810069084167,-0.6754795908927917,-0.2108781933784485,1.0041252374649048,0.7186622619628906,-0.5617009997367859,-0.8221613764762878,-0.14546170830726624,-0.3555081784725189,0.06068633124232292,0.3084367513656616,0.4650114178657532,0.8266839385032654,-0.43452709913253784,0.34690725803375244,0.24733507633209229,-0.2122996747493744,0.2845604121685028,0.37493816018104553,0.5643587708473206,-0.09008350223302841,0.13263589143753052,1210516483119304704,mmmm smells like friendship,,"North Region, Singapore"
bloom,-1.5038909912109375,-0.8333098888397217,-0.10442804545164108,0.07289531081914902,-0.4939558506011963,-0.551480233669281,0.36031946539878845,-0.3610247075557709,-0.5398971438407898,-0.25629496574401855,0.16009210050106049,0.299202024936676,-1.9448214769363403,0.3714768588542938,-0.3085367679595947,-0.5796650648117065,-0.12772995233535767,0.5244112610816956,0.5652264952659607,0.8627128005027771,0.2449921816587448,-0.6023390889167786,-0.8732272982597351,0.03797883540391922,0.28289368748664856,0.1484491527080536,0.28174400329589844,0.6111156344413757,0.31860458850860596,0.33727583289146423,1.0914007425308228,0.43343818187713623,-0.0032062812242656946,-0.7070055603981018,-0.5768208503723145,-0.3120552897453308,-0.3660014271736145,0.48814108967781067,0.3176506459712982,0.7802655100822449,-0.030072106048464775,-0.8408830761909485,-0.4182495176792145,0.18814139068126678,0.12544429302215576,0.40486282110214233,-0.4072403609752655,-0.4222314953804016,-0.71556556224823,0.37545245885849,1210426231805468672,really like the smell of bloom by gucci omgg,,"East Region, Singapore"
ginger,0.14940790832042694,-1.26759934425354,-0.581929624080658,0.46919694542884827,-0.9641070365905762,0.012337305583059788,-0.25815507769584656,-0.12915554642677307,-0.23966090381145477,0.31767335534095764,-0.9865742921829224,-0.07896817475557327,-2.821176767349243,-0.3329830467700958,-0.2308064103126526,-0.29128244519233704,0.7893170118331909,-0.5440934300422668,0.7219445705413818,0.4892122745513916,-0.4164198338985443,0.520149827003479,0.2656264007091522,-0.8446346521377563,0.6935652494430542,1.3799489736557007,-0.25415658950805664,-0.04408818110823631,0.20305368304252625,-0.881798267364502,-0.3364741802215576,0.5957821011543274,0.08453020453453064,-0.39648377895355225,-0.2394556850194931,0.31859931349754333,0.5080435276031494,-0.17354966700077057,0.18190447986125946,0.6799646019935608,-0.44394826889038086,-0.9982244372367859,-0.5912767648696899,0.6260728240013123,0.6016558408737183,0.18944622576236725,0.8698675036430359,0.696772038936615,-0.5800495743751526,0.1041279286146164,1210358872285863936,chapter 121 act 4 thats the new products range from polar puffs  cakes inspired by our local dish hainanese chicken rice hainanese chicken puff thats have ginger smell with the chicken stuffing as it is also https www instagram compb6jlwrqhcwj igshid 13w39ff3ltcwk,,"Central Region, Singapore"
,,,,,,,,,,,,,,,,,,,,,,,,,,,,,,,,,,,,,,,,,,,,,,,,,,,1210097717680062465,"madre u smell so good today where r u gg
me work 
haha",,"North-East Region, Singapore"
rain,-0.9015682935714722,-0.37056204676628113,0.4964354932308197,-0.37107378244400024,-0.8719040155410767,1.1970683336257935,1.2952067852020264,0.03799201920628548,-0.21955430507659912,-0.021817464381456375,0.21133121848106384,-0.2627277076244354,-4.429386138916016,0.2778865396976471,-0.48314908146858215,0.04892062023282051,0.19852323830127716,0.040483906865119934,-0.4111027121543884,-0.41858023405075073,-0.2409375011920929,-0.7289330959320068,0.444156289100647,0.3953283429145813,0.7614374160766602,0.1488189697265625,-0.2448118031024933,1.2029448747634888,-0.2622932195663452,0.7012922167778015,-0.2755745053291321,0.5051379799842834,0.678152322769165,0.32516658306121826,0.22699591517448425,-0.01065916195511818,-1.545620322227478,0.30017027258872986,0.7370965480804443,1.228078842163086,-1.1619795560836792,0.1488262116909027,-0.1709406077861786,0.23010513186454773,-0.3722378611564636,0.6044068932533264,-0.15490837395191193,-0.1200394481420517,-0.31308695673942566,1.3571213483810425,1210070471137300480,"was wondering why it was so dark with no rain smell then my colleagues called me out to look up and well 
this is my first ever eclipse 
taken at the grandstand 
200 turf club rd pic twitter com68hcpakdxa",,The Grandstand
poop,0.004714400973170996,0.20877894759178162,0.07166247069835663,-0.09480268508195877,0.2361360639333725,-0.5198177099227905,0.71756911277771,-0.3203250467777252,0.11707602441310883,0.545650839805603,0.33965641260147095,0.2674519121646881,-2.8979709148406982,-0.09222067147493362,-0.5145934820175171,0.7729025483131409,0.2782439589500427,-1.0161058902740479,0.007018223404884338,-0.2456468641757965,-0.41859129071235657,0.519615888595581,0.37449923157691956,0.5013721585273743,-0.16254715621471405,0.7621747851371765,-0.5478760004043579,0.4218412935733795,0.1651396006345749,0.20602601766586304,-0.33380380272865295,0.6527165770530701,0.5401739478111267,-0.6328889727592468,-0.9081771373748779,0.2101232260465622,0.014022283256053925,-0.3143261969089508,0.33524537086486816,0.7468274235725403,0.2232067883014679,-0.5950408577919006,-1.342183232307434,-0.08025563508272171,0.8604794144630432,0.8327205181121826,0.47544851899147034,0.6292669773101807,-0.26352691650390625,0.8416936993598938,1209789442057105408,why the fuck does my poop smell like beer ,,"North Region, Singapore"
,,,,,,,,,,,,,,,,,,,,,,,,,,,,,,,,,,,,,,,,,,,,,,,,,,,1209728346692567043,i cnt be the only one who dont like truffle idk the smell just pisses me off,,"North Region, Singapore"
raudhah,-0.7732393145561218,-0.18399959802627563,0.7821592092514038,-0.3050890266895294,-0.2829425632953644,-0.3119441270828247,-0.37340155243873596,-0.5552355051040649,0.4638160765171051,-0.7875673770904541,-1.6032363176345825,-1.0657111406326294,-0.21078918874263763,-0.8475155830383301,0.23843780159950256,0.05340952053666115,0.5799521803855896,-0.46982744336128235,0.10105033963918686,0.36933866143226624,-0.2860901355743408,-0.2774159610271454,-0.805115818977356,0.03453754261136055,-0.09720408171415329,0.437361478805542,-0.2394229918718338,-0.6742997169494629,-0.05276453495025635,0.005066489800810814,0.03458024561405182,0.6928606033325195,0.8989595770835876,-0.7832565307617188,-0.6053556203842163,-0.27840864658355713,0.6823201775550842,0.5397650003433228,0.6154797673225403,-0.022742779925465584,0.5168169140815735,0.5693343281745911,-1.0302283763885498,0.4480755627155304,-0.9777498841285706,0.5335364937782288,-0.30212461948394775,-0.14399030804634094,0.35020554065704346,-0.4613094627857208,1209656328710262786,"the smell of raudhah at masjid nabawi made me so sad 
ya allah rindunye",,"East Region, Singapore"
,,,,,,,,,,,,,,,,,,,,,,,,,,,,,,,,,,,,,,,,,,,,,,,,,,,1209647733897924609,loving the smell of spices this morning tosai here i come  little india https www instagram compb6eh9qgby9  igshid 1n6wh844ta2m2,little india,"Central Region, Singapore"
it,-0.04110100120306015,0.19112999737262726,0.09549900144338608,0.0028301000129431486,0.09025900065898895,0.731909990310669,0.8512899875640869,0.22551999986171722,0.27452999353408813,0.7409200072288513,0.3416700065135956,-0.11665999889373779,-6.310100078582764,-0.20170000195503235,-0.31718000769615173,-0.05216800048947334,0.4715699851512909,-0.0602869987487793,-0.6726300120353699,-0.1098800003528595,-0.0308810006827116,0.1500300019979477,0.044828999787569046,0.7716100215911865,0.08088099956512451,0.4584600031375885,0.41312000155448914,0.3734300136566162,0.5302000045776367,-0.05388199910521507,-0.4480400085449219,0.6614199876785278,-0.03150299936532974,-0.4093100130558014,0.5275300145149231,0.3552199900150299,-0.2036300003528595,0.019589999690651894,0.12759000062942505,0.19731000065803528,-0.8081799745559692,-0.12084999680519104,0.2566800117492676,-0.0622359998524189,-0.022257000207901,-0.12613999843597412,0.02071000076830387,-0.2968499958515167,-0.3196899890899658,0.3080799877643585,1209439865412059137,the staff at dior sprayed their hair perfume on my hair and it smell super good ,,"West Region, Singapore"
food,0.5168431997299194,0.24110743403434753,-0.45077750086784363,-0.433033287525177,0.6487171053886414,0.2970743477344513,0.3559613823890686,-0.5938387513160706,0.6536657810211182,-0.18287618458271027,-0.8264692425727844,-0.841360867023468,-5.404501914978027,0.371147096157074,0.2210654765367508,0.6213679313659668,0.4512910544872284,-1.3179404735565186,-0.11296018213033676,-0.2812703251838684,-0.8241368532180786,-0.517576277256012,-0.08931384980678558,0.6565334796905518,0.39262938499450684,1.0256431102752686,-0.031084882095456123,0.09336365759372711,0.7500833868980408,-1.3768361806869507,-0.5325383543968201,-0.17749430239200592,-1.142799973487854,0.28531399369239807,-0.08607777953147888,-0.5578234791755676,0.0990486592054367,0.2613527774810791,0.5593934059143066,0.4013989269733429,-1.1582881212234497,0.07285843789577484,-0.8931660056114197,-0.7556917667388916,1.1986268758773804,0.6608551144599915,1.0709292888641357,0.21074171364307404,-0.6795129776000977,0.7289639115333557,1209373654766604288,the smell of fried food is just ugh ,,"North Region, Singapore"
,,,,,,,,,,,,,,,,,,,,,,,,,,,,,,,,,,,,,,,,,,,,,,,,,,,1209336267004997633,edit it worked a lot of the wet compost turned to soil and the dry ones are in the process it does not produce any smell too https twitter comecoclubgstatus1202174522222247937 pic twitter comqkit6v7btz,,"Central Region, Singapore"
,,,,,,,,,,,,,,,,,,,,,,,,,,,,,,,,,,,,,,,,,,,,,,,,,,,1209291417685610498,is that a lie i smell cant be since its the truth,,"East Region, Singapore"
,,,,,,,,,,,,,,,,,,,,,,,,,,,,,,,,,,,,,,,,,,,,,,,,,,,1208757087322308609,every friday many activists come together and protest yet govts around the world choose to stay silent the effects of climate change will not remain silent though fires across australia and congo major flooding in malaysia and thailand wake up  smell the world ending,,"East Region, Singapore"
durian,-0.9263759255409241,0.43463537096977234,0.4391591250896454,-0.7709046006202698,-0.0008366675465367734,0.3534213602542877,-0.3944724500179291,0.22962415218353271,0.8743899464607239,1.251574993133545,-0.4042692184448242,-0.5728098750114441,-2.002628803253174,0.21108083426952362,0.020762722939252853,1.2536094188690186,1.5389169454574585,-1.384570837020874,0.46749255061149597,0.2066916823387146,-0.3511635363101959,-0.14656026661396027,-0.7856730818748474,-0.17271478474140167,0.16876262426376343,0.23899491131305695,-0.7365282773971558,-0.13914959132671356,0.7619315385818481,-1.4098012447357178,0.0707932785153389,0.11807052791118622,-0.044850870966911316,-0.0879250019788742,-1.102884292602539,-1.0362756252288818,-0.21789532899856567,-0.7520263195037842,1.1843430995941162,0.7388421893119812,-1.1890068054199219,-1.2012311220169067,-0.8740290403366089,-1.2722294330596924,0.3195599913597107,0.5976497530937195,-0.17828144133090973,-0.40651869773864746,0.31547969579696655,0.5544251203536987,1208565831115800576,the smell of durian in the air lovely,,"East Region, Singapore"
girls,0.5310500860214233,0.04211779311299324,0.27029991149902344,0.44588640332221985,0.013247945345938206,0.08862098306417465,1.9908649921417236,0.5489375591278076,-0.5290770530700684,0.841719925403595,-1.0177323818206787,0.4423453211784363,-4.6646504402160645,0.43815740942955017,-0.47779566049575806,-0.2256080061197281,-0.9507604241371155,-1.3723713159561157,0.24629314243793488,0.2377147227525711,0.5537290573120117,-0.6144858598709106,0.48566770553588867,-0.3656395673751831,0.3156120777130127,0.592759370803833,-0.15832719206809998,0.25661778450012207,-0.5297150015830994,-0.8656854629516602,-0.1755000501871109,-0.6035798788070679,0.3458750247955322,0.08190584927797318,0.029028913006186485,-0.38286536931991577,-0.05493127927184105,0.13424117863178253,0.2565564513206482,0.0591590441763401,-1.5212434530258179,-0.16803781688213348,-0.23330800235271454,0.45912936329841614,-0.2367865890264511,-0.5239834189414978,0.8790386319160461,0.2584969997406006,-0.023664571344852448,0.041199613362550735,1208143985828515840,man i remember when i was 15 and had no game and id be home alone horny as fuck like  girls smell so good   those were dark days,,"North Region, Singapore"
,,,,,,,,,,,,,,,,,,,,,,,,,,,,,,,,,,,,,,,,,,,,,,,,,,,1207876448763052032,i can smell the homophobia from here sis ,,"Central Region, Singapore"
old,-0.1814417839050293,-0.20030835270881653,0.33061057329177856,0.0995512306690216,-0.27775803208351135,-0.3851071298122406,1.082897424697876,0.4408639967441559,-0.6079687476158142,0.12409903109073639,-0.1893651783466339,0.09986376762390137,-5.064667701721191,0.05876707285642624,-0.27945980429649353,-0.7818068265914917,0.072478286921978,-0.45019325613975525,-0.534400999546051,0.1584347039461136,-0.292916864156723,0.4572012424468994,-0.1780732423067093,-0.981719434261322,-0.6384313702583313,0.49840831756591797,-0.5907663106918335,-0.6715835928916931,-0.15929977595806122,-0.7587700486183167,-0.46922022104263306,-0.02417716197669506,-0.10145632922649384,0.20948034524917603,0.1380697637796402,0.6345359683036804,0.039524342864751816,0.2656179666519165,0.2752082645893097,-0.3746812641620636,-0.938782274723053,0.2510184943675995,-0.1984444409608841,0.020769517868757248,-0.016463294625282288,0.20373836159706116,0.6418895125389099,0.35088035464286804,-0.2697063684463501,0.41778209805488586,1207788776770043905,yeah dont they wash them or do they wash them with old smell detergent its so strange at least use some febreze or something ,,"Central Region, Singapore"
clothes,-0.7395414710044861,-1.2357313632965088,0.2641248404979706,0.29018333554267883,0.15375587344169617,-0.40203607082366943,1.4464008808135986,-0.2278302162885666,0.4352295696735382,0.30014729499816895,-0.117452472448349,0.3905751407146454,-4.027966022491455,1.178449034690857,-0.81646728515625,0.5625287294387817,-0.822911262512207,-1.148692011833191,-0.8621587157249451,-0.09608744829893112,-0.45304587483406067,-0.6644976139068604,0.5277144312858582,0.6026860475540161,-0.5655961036682129,1.0882352590560913,0.0313473641872406,0.5819156765937805,-0.2814961373806,-1.3239877223968506,-0.4392016530036926,0.7871097922325134,0.39428848028182983,0.05190237984061241,0.12970679998397827,-0.7099858522415161,-0.3518959581851959,0.7592436671257019,0.34142717719078064,-0.20969663560390472,0.012962169013917446,0.934747040271759,-0.6368381381034851,-0.6230884194374084,0.9212583303451538,-0.26052024960517883,1.5658791065216064,0.39035964012145996,-0.7435622811317444,0.01380225084722042,1207788239190294528,i mean does it have to smell like old clothes couldnt it smell like nicely washed clothes ,,"Central Region, Singapore"
laundry,-0.4605557918548584,-0.5017162561416626,0.28400489687919617,-0.32293182611465454,0.31197962164878845,0.3449157774448395,0.6842083930969238,-0.5584713220596313,0.9612374901771545,0.2259063571691513,0.03086869791150093,0.31990548968315125,-2.5914690494537354,0.9173974990844727,0.006027389317750931,0.6183854937553406,0.11981009691953659,-0.8118681311607361,-1.0815532207489014,0.2561836540699005,-1.2979049682617188,0.18474911153316498,-0.19866332411766052,0.25415486097335815,-0.23813405632972717,1.0057252645492554,-0.2824198305606842,0.5906927585601807,0.04577632248401642,-0.1517391949892044,-0.01992153562605381,0.5988008975982666,0.12471716105937958,0.03623277693986893,-0.7540973424911499,-0.31095412373542786,0.048425476998090744,0.9229681491851807,0.7865853309631348,0.4959309995174408,0.0357411690056324,1.3750572204589844,-0.8843508958816528,-0.7334697246551514,1.4939953088760376,0.07178793102502823,0.24342267215251923,0.39764204621315,-0.31692180037498474,-0.6173384189605713,1207787619662172160,right why dont they just smell like fresh laundry or something https twitter comkguilainestatus1207784382733402112,,"Central Region, Singapore"
cologne,-1.5688972473144531,-0.49664202332496643,0.1990983784198761,0.0376763790845871,-0.5095236301422119,0.227667436003685,0.8595471978187561,-0.22863514721393585,-0.02561335451900959,0.08133460581302643,-0.1892608255147934,0.38263872265815735,-2.1314268112182617,0.5650292038917542,0.7263980507850647,0.9522865414619446,0.3587547242641449,-0.7302178144454956,0.12289801239967346,-0.22421672940254211,0.11237576603889465,-0.7773564457893372,0.7378792762756348,-0.45233461260795593,1.0689741373062134,1.2972729206085205,1.5859166383743286,1.4071111679077148,-0.3614455461502075,-0.5366939902305603,-0.03630544990301132,0.6422454118728638,0.3403925895690918,-0.5282639861106873,0.5764236450195312,-0.8132527470588684,-0.7675728797912598,0.7942748665809631,-0.3741418123245239,1.33333158493042,0.49982526898384094,-0.607679009437561,-1.580583930015564,-0.14852699637413025,-0.5185170769691467,-0.13240505754947662,1.4014887809753418,-0.45690828561782837,-0.3638039529323578,-0.29462048411369324,1207518489822384128,guys cologne smell so good wtf,,"North Region, Singapore"
,,,,,,,,,,,,,,,,,,,,,,,,,,,,,,,,,,,,,,,,,,,,,,,,,,,1207258542987571200,i dont care what you smell get in there,,Singapore
,,,,,,,,,,,,,,,,,,,,,,,,,,,,,,,,,,,,,,,,,,,,,,,,,,,1206851883643457537,"take time to smell the daisies  my favorite flower along with sunflowers 
   https www instagram compb6kqjsdbllw igshid j6xdrmq8pm72",,"Central Region, Singapore"
,,,,,,,,,,,,,,,,,,,,,,,,,,,,,,,,,,,,,,,,,,,,,,,,,,,1206803218556014592,will drinking water neutralise the smell omg i learn smth new on twitter everyday ,,"North Region, Singapore"
hapak,-0.25853055715560913,0.23963895440101624,-0.26643702387809753,-1.416490912437439,-0.11434976756572723,-0.3431816101074219,-0.8582939505577087,-0.9236834645271301,0.3009895384311676,0.3482990264892578,0.11944705247879028,-0.1712755560874939,-0.03176499158143997,-0.37741637229919434,0.956556499004364,0.9758989810943604,0.3738064765930176,0.26980265974998474,0.7041980028152466,-0.2358912080526352,-0.2500147223472595,1.4155422449111938,0.387679785490036,-0.11006371676921844,-0.00874397624284029,0.028630422428250313,0.14401021599769592,-0.4560861587524414,-0.12609556317329407,-0.2152116894721985,0.5769363045692444,1.1005760431289673,0.7694860100746155,-0.25522851943969727,-1.4289512634277344,-0.6638391613960266,0.8719443082809448,-0.04214376211166382,0.7504183650016785,-0.5865956544876099,0.8983062505722046,-0.7314743995666504,-0.9444535970687866,-1.084001898765564,-1.1416051387786865,0.15878398716449738,-0.31158068776130676,-0.5393146276473999,0.382747083902359,0.5656296610832214,1206729893922275328,i think the hapak smell is because they dont air the house and let in some ventilation the windows are always closed and dark ,,"Central Region, Singapore"
,,,,,,,,,,,,,,,,,,,,,,,,,,,,,,,,,,,,,,,,,,,,,,,,,,,1206610299282837504,but you smell so good so i kinda fall asleep fast ,,"West Region, Singapore"
,,,,,,,,,,,,,,,,,,,,,,,,,,,,,,,,,,,,,,,,,,,,,,,,,,,1206495672779689986,smell examine eat try not to get crumbs all over yourself usually unsuccessful  how can someone be so cute just eating kaya toast   pic twitter comegbtuouovv,,Jewel Changi Airport
,,,,,,,,,,,,,,,,,,,,,,,,,,,,,,,,,,,,,,,,,,,,,,,,,,,1205975685421916160,what smell exactly jack https twitter comjackaverymusicstatus1205973543063822338,,"North-East Region, Singapore"
,,,,,,,,,,,,,,,,,,,,,,,,,,,,,,,,,,,,,,,,,,,,,,,,,,,1205434267074883584,why do i smell ljs in the train ,,"North-East Region, Singapore"
,,,,,,,,,,,,,,,,,,,,,,,,,,,,,,,,,,,,,,,,,,,,,,,,,,,1204986540666974208,if u were surrounded w books in your childhood if u tiptoed in the room full of books before parents woke up just to enjoy the feel  to explore that out of bounds shelf  if u r still nostalgic about the musty smell of that room then this book is for u celebrate the reader pic twitter comt7xomq4fmy,,Central Public Library
,,,,,,,,,,,,,,,,,,,,,,,,,,,,,,,,,,,,,,,,,,,,,,,,,,,1204945280497401856,nose is super blocked cant smell and taste anything ughhh fts,,"East Region, Singapore"
,,,,,,,,,,,,,,,,,,,,,,,,,,,,,,,,,,,,,,,,,,,,,,,,,,,1204940796803203072,fkkk i can smell that shit  https twitter commarsxniastatus1204765776017641472,,"Central Region, Singapore"
,,,,,,,,,,,,,,,,,,,,,,,,,,,,,,,,,,,,,,,,,,,,,,,,,,,1204725180548964353,selling rearrry fast gotta smell good for the festive season dont be smelling like pekong king kong kapla hotak kau kay available online http bit lyupdsldclgn and in store  https www instagram compb57jcajn5gm igshid l1vlivf3ud4j,,"Central Region, Singapore"
cabin,-1.113592267036438,-0.22360625863075256,0.14921307563781738,-0.5088965892791748,-0.057808540761470795,-0.07010546326637268,0.8734235167503357,-0.6204768419265747,0.8027451038360596,-0.6664981245994568,0.23889832198619843,0.206650048494339,-2.490786075592041,0.00267525645904243,1.157199740409851,0.08609522879123688,-0.00775744765996933,0.4748447835445404,-0.6121372580528259,0.4934486746788025,-0.11783347278833389,-0.13588158786296844,-0.4607792794704437,-0.6867796182632446,0.15708200633525848,0.9424271583557129,-0.6513792872428894,0.5662465691566467,-0.3266366422176361,0.3981511890888214,-0.20680265128612518,0.5599349737167358,0.023333406075835228,0.36739131808280945,-0.4867539703845978,-0.47546035051345825,0.033687666058540344,0.22243908047676086,0.4936477243900299,-0.29513657093048096,-0.15191124379634857,0.3630431592464447,-0.013953163288533688,-0.6751923561096191,0.05288420245051384,1.3338510990142822,0.4589312970638275,-0.4250383973121643,-0.005940588656812906,0.9731078147888184,1204581442665304065," asia 
rainy day in singapore with no shelter staircases jetstar you are too budget and the cabin smell bad pic twitter com2uznapgp8b",,Singapore Changi Airport (SIN)
,,,,,,,,,,,,,,,,,,,,,,,,,,,,,,,,,,,,,,,,,,,,,,,,,,,1204395255149150209,fucking cold la siaaaaaa my nose is blocked cant smell or taste anythinggg,,"East Region, Singapore"
,,,,,,,,,,,,,,,,,,,,,,,,,,,,,,,,,,,,,,,,,,,,,,,,,,,1204321766937464833,orchids dont really smell pic twitter comvbrsdasveq,,Singapore Botanic Gardens
,,,,,,,,,,,,,,,,,,,,,,,,,,,,,,,,,,,,,,,,,,,,,,,,,,,1203987968421031936,love the scented smell of my hand cream its smells like edible cherries infused with roses okay das it ,,"Central Region, Singapore"
,,,,,,,,,,,,,,,,,,,,,,,,,,,,,,,,,,,,,,,,,,,,,,,,,,,1203846699606691840,you know the smell after rain usually smells good but idk why today it smells like trash water ,,"West Region, Singapore"
,,,,,,,,,,,,,,,,,,,,,,,,,,,,,,,,,,,,,,,,,,,,,,,,,,,1203704085070983169,"
i can smell thy yuletide spirit coursing through thy firmament can you 

that said in the spirit of sharing frapasbars seasonal set has 2 options for you folks yah 2 pax festive menu  85 https www instagram compb50tgq1fyir igshid 1h83btru11zu6",,"Central Region, Singapore"
,,,,,,,,,,,,,,,,,,,,,,,,,,,,,,,,,,,,,,,,,,,,,,,,,,,1203549054497689601,i wanna smell him https twitter comrelijoonstatus1203111076281430023,,"North Region, Singapore"
,,,,,,,,,,,,,,,,,,,,,,,,,,,,,,,,,,,,,,,,,,,,,,,,,,,1203294181096996864,fml wanted to get another shot from the bottle  i dropped the entire bottle  now i smell like sake ,,"Central Region, Singapore"
,,,,,,,,,,,,,,,,,,,,,,,,,,,,,,,,,,,,,,,,,,,,,,,,,,,1203188724605083648,"i really have missed trails its after such a long time i get to smell the trees muds air love it 
 
  pulau ubin singapore https www instagram compb5wovi3he8q igshid w04yh9hcyf1t",,"East Region, Singapore"
,,,,,,,,,,,,,,,,,,,,,,,,,,,,,,,,,,,,,,,,,,,,,,,,,,,1203147617187717120,philippines  i can smell the crown gazini ganados is way far to thailand venezuela and colombia whaaaaa lets claim a b2b crown  ,thailand,"North-East Region, Singapore"
